{"learner":{"attributes":{"best_iteration":"28","best_score":"0.9977161418226664"},"feature_names":["Bwd Packet Length Min","Protocol_6","Bwd Packets/s","FWD Init Win Bytes","Packet Length Std","FIN Flag Count","SrcPortRange_registered","Packet Length Min","Fwd Seg Size Min","Bwd IAT Total","SYN Flag Count","Bwd Packet Length Std"],"feature_types":["int","i","float","int","float","int","i","int","int","int","int","float"],"gradient_booster":{"model":{"gbtree_model_param":{"num_parallel_tree":"1","num_trees":"29"},"iteration_indptr":[0,1,2,3,4,5,6,7,8,9,10,11,12,13,14,15,16,17,18,19,20,21,22,23,24,25,26,27,28,29],"tree_info":[0,0,0,0,0,0,0,0,0,0,0,0,0,0,0,0,0,0,0,0,0,0,0,0,0,0,0,0,0],"trees":[{"base_weights":[1.4524056E-4,-1.5767082E0,1.9442387E0,-1.9978257E0,-2.5001686E-2,1.9974242E0,-1.9999641E-1,-1.9787493E0,-1.9994886E0,1.9953885E0,-1.9996254E-1,1.9997513E0,1.9336367E0,-1.873473E0,-1.9998194E-1,-1.9995582E0,-1.9613656E0,1.9995981E0,-1.9965233E-1,1.9997866E0,-1.9448276E-1,-1.9991724E-1,1.9999582E0,-1.8231665E-1,-1.9998708E-1,-1.9999994E-1,-1.9970746E-1,-1.8887536E-1,-1.9995545E-1,1.999978E-1,-1.9620854E-1,1.9997954E-1,-1.7948718E-1,1.999986E-1,-1E-1],"categories":[],"categories_nodes":[],"categories_segments":[],"categories_sizes":[],"default_left":[0,0,0,0,0,0,0,0,0,0,0,0,0,0,0,0,0,0,0,0,0,0,0,0,0,0,0,0,0,0,0,0,0,0,0],"id":0,"left_children":[1,3,5,7,9,11,-1,13,15,17,-1,19,21,23,-1,25,27,29,-1,31,-1,-1,33,-1,-1,-1,-1,-1,-1,-1,-1,-1,-1,-1,-1],"loss_changes":[2.8710474E7,3.379111E6,8.7987E5,1.26E2,4.4037735E6,6.11E2,0E0,7.1975E2,5E0,9.1725E3,0E0,5.6E2,3.8006312E4,3.4235938E2,0E0,1E0,1.5291016E1,8.2375E2,0E0,1.36E2,0E0,0E0,1.4E1,0E0,0E0,0E0,0E0,0E0,0E0,0E0,0E0,0E0,0E0,0E0,0E0],"parents":[2147483647,0,0,1,1,2,2,3,3,4,4,5,5,7,7,8,8,9,9,11,11,12,12,13,13,15,15,16,16,17,17,19,19,22,22],"right_children":[2,4,6,8,10,12,-1,14,16,18,-1,20,22,24,-1,26,28,30,-1,32,-1,-1,34,-1,-1,-1,-1,-1,-1,-1,-1,-1,-1,-1,-1],"split_conditions":[2.6883E4,4.82E2,2.8869E4,5.6985E0,3.4990903E2,3E0,-1.9999641E-1,1E0,7.863472E2,1.982411E6,-1.9996254E-1,8.028858E6,9.7580734E1,3.2E1,-1.9998194E-1,2E0,3.6687115E2,4.8697897E2,-1.9965233E-1,3.6738943E2,-1.9448276E-1,-1.9991724E-1,3.2554565E2,-1.8231665E-1,-1.9998708E-1,-1.9999994E-1,-1.9970746E-1,-1.8887536E-1,-1.9995545E-1,1.999978E-1,-1.9620854E-1,1.9997954E-1,-1.7948718E-1,1.999986E-1,-1E-1],"split_indices":[3,11,3,4,4,10,0,1,4,9,0,9,4,0,0,5,11,11,0,4,0,0,4,0,0,0,0,0,0,0,0,0,0,0,0],"split_type":[0,0,0,0,0,0,0,0,0,0,0,0,0,0,0,0,0,0,0,0,0,0,0,0,0,0,0,0,0,0,0,0,0,0,0],"sum_hessian":[9.365519E6,5.171178E6,4.1943405E6,4.0673422E6,1.1038361E6,4.138535E6,5.58055E4,3.2620628E5,3.7411358E6,5.455953E5,5.582408E5,3.992838E6,1.4569688E5,5.4414766E4,2.7179153E5,3.734261E6,6.8749116E3,5.4502106E5,5.7425E2,3.9928028E6,3.525E1,2.41575E3,1.4328112E5,3.8934266E4,1.54805E4,3.170306E6,5.6395494E5,2.3869116E3,4.488E3,5.449693E5,5.175E1,3.992794E6,8.75E0,1.4328012E5,1E0],"tree_param":{"num_deleted":"0","num_feature":"12","num_nodes":"35","size_leaf_vector":"1"}},{"base_weights":[5.042524E-4,-1.429609E0,1.7658709E0,-1.810655E0,-2.493996E-2,-1.8064951E0,1.7864672E0,-1.8165884E0,-1.7745793E0,1.8143672E0,-1.81835E-1,-1.8128851E-1,1.6885425E0,1.5971197E0,1.8183473E0,-1.722449E0,-1.8183945E0,-1.8162427E0,1.4696343E0,1.8171873E0,-1.8150091E-1,1.7712326E-1,9.586641E-2,-1.7824994E0,1.8182225E0,1.8183663E0,-1.7688401E-1,-1.8118188E-1,-1.4390185E-1,-1.8184629E-1,-1.744258E-1,-1.20754816E-1,-1.8171602E-1,1.8154365E-1,-1.8162838E-1,1.8185814E-1,1.6935372E-1,-1.8179986E-1,-3.76947E-2,1.8182693E-1,-1.5963475E-1,-1.6824271E-1,1.8183768E-1],"categories":[],"categories_nodes":[],"categories_segments":[],"categories_sizes":[],"default_left":[0,0,0,0,0,0,0,0,0,0,0,0,0,0,0,0,0,0,0,0,0,0,0,0,0,0,0,0,0,0,0,0,0,0,0,0,0,0,0,0,0,0,0],"id":1,"left_children":[1,3,5,7,9,11,13,15,17,19,-1,-1,21,23,25,27,29,31,33,35,-1,-1,-1,37,39,41,-1,-1,-1,-1,-1,-1,-1,-1,-1,-1,-1,-1,-1,-1,-1,-1,-1],"loss_changes":[2.3414876E7,2.742437E6,3.05401E5,8.59E2,3.606494E6,5.344531E2,2.4909E4,5.85E2,7.6952375E4,5.52775E3,0E0,0E0,9.539871E-1,4.4440238E5,2.44E2,1.6482969E3,1.5E1,3.1175E2,8.20611E3,9.0125E1,0E0,0E0,0E0,1.8214844E3,9.2E1,1.32E2,0E0,0E0,0E0,0E0,0E0,0E0,0E0,0E0,0E0,0E0,0E0,0E0,0E0,0E0,0E0,0E0,0E0],"parents":[2147483647,0,0,1,1,2,2,3,3,4,4,5,5,6,6,7,7,8,8,9,9,12,12,13,13,14,14,15,15,16,16,17,17,18,18,19,19,23,23,24,24,25,25],"right_children":[2,4,6,8,10,12,14,16,18,20,-1,-1,22,24,26,28,30,32,34,36,-1,-1,-1,38,40,42,-1,-1,-1,-1,-1,-1,-1,-1,-1,-1,-1,-1,-1,-1,-1,-1,-1],"split_conditions":[3.2E1,4.82E2,5.7116663E-1,4.181447E2,3.4990903E2,3.955836E2,2.3905954E2,3.3281785E-2,1.1678219E1,4.8697897E2,-1.81835E-1,-1.8128851E-1,2.7014178E2,4E1,4.7191757E2,3.2E1,7.863472E2,2.8094305E2,2.9804385E2,3.2554565E2,-1.8150091E-1,1.7712326E-1,9.586641E-2,1.3827519E2,4.4E1,1.8172644E2,-1.7688401E-1,-1.8118188E-1,-1.4390185E-1,-1.8184629E-1,-1.744258E-1,-1.20754816E-1,-1.8171602E-1,1.8154365E-1,-1.8162838E-1,1.8185814E-1,1.6935372E-1,-1.8179986E-1,-3.76947E-2,1.8182693E-1,-1.5963475E-1,-1.6824271E-1,1.8183768E-1],"split_indices":[8,11,2,11,4,11,11,2,2,11,0,0,4,8,11,7,4,4,4,4,0,0,0,4,8,4,0,0,0,0,0,0,0,0,0,0,0,0,0,0,0,0,0],"split_type":[0,0,0,0,0,0,0,0,0,0,0,0,0,0,0,0,0,0,0,0,0,0,0,0,0,0,0,0,0,0,0,0,0,0,0,0,0,0,0,0,0,0,0],"sum_hessian":[9.274412E6,5.1237185E6,4.150694E6,4.03039E6,1.0933282E6,2.3792889E4,4.126901E6,3.4610892E6,5.69301E5,5.397574E5,5.5357094E5,2.3749947E4,4.2941063E1,5.947167E5,3.5321845E6,6.517458E4,3.3959145E6,5.6208294E5,7.2180225E3,5.393388E5,4.185816E2,3.7289654E1,5.6514087E0,3.6518234E4,5.5819844E5,3.5321662E6,1.8086243E1,4.954645E4,1.5628131E4,3.3927685E6,3.1460679E3,8.480844E2,5.612349E5,6.5311475E3,6.86875E2,5.3331256E5,6.0262007E3,3.561835E4,8.998824E2,5.5819125E5,7.177991E0,1.0148206E1,3.5321562E6],"tree_param":{"num_deleted":"0","num_feature":"12","num_nodes":"43","size_leaf_vector":"1"}},{"base_weights":[7.025699E-5,-1.3266357E0,1.6356424E0,-1.6806977E0,-2.1690914E-2,1.6804606E0,-1.6856072E0,-1.664173E0,-1.6821384E0,1.6785449E0,-1.682193E-1,1.6824094E0,1.6271871E0,-1.7156556E0,-1.6829112E-1,-1.6815606E0,-1.4831315E0,-1.682207E-1,-1.6448983E0,1.6823325E0,-1.7951525E0,1.68244E0,-1.6411355E-1,-1.6823141E-1,1.682746E0,-1.6845213E-1,-1.8323323E0,-1.6710924E-1,-1.6825573E-1,2.3552728E-1,-1.7000878E-1,-1.573337E-1,-1.6860256E-1,1.6826575E-1,-1.6528113E-1,-1.962517E-1,-1.6781859E-1,1.682448E-1,-1.52889E-1,1.6827704E-1,4.9279686E-2,-1.7845877E-1,-1.91615E-1],"categories":[],"categories_nodes":[],"categories_segments":[],"categories_sizes":[],"default_left":[0,0,0,0,0,0,0,0,0,0,0,0,0,0,0,0,0,0,0,0,0,0,0,0,0,0,0,0,0,0,0,0,0,0,0,0,0,0,0,0,0,0,0],"id":2,"left_children":[1,3,5,7,9,11,13,15,17,19,-1,21,23,25,-1,27,29,-1,31,33,35,37,-1,-1,39,-1,41,-1,-1,-1,-1,-1,-1,-1,-1,-1,-1,-1,-1,-1,-1,-1,-1],"loss_changes":[1.9602128E7,2.304485E6,6.02234E5,9.2E1,3.0052682E6,4.12E2,1.484375E0,9.881875E2,7E0,6.92275E3,0E0,3.94E2,2.5911938E4,1.2836914E1,0E0,2.5E-1,2.2977621E4,0E0,1.6982422E1,5.72E2,7.930176E0,1E2,0E0,0E0,3.21875E0,0E0,2.2998047E-1,0E0,0E0,0E0,0E0,0E0,0E0,0E0,0E0,0E0,0E0,0E0,0E0,0E0,0E0,0E0,0E0],"parents":[2147483647,0,0,1,1,2,2,3,3,4,4,5,5,6,6,7,7,8,8,9,9,11,11,12,12,13,13,15,15,16,16,18,18,19,19,20,20,21,21,24,24,26,26],"right_children":[2,4,6,8,10,12,14,16,18,20,-1,22,24,26,-1,28,30,-1,32,34,36,38,-1,-1,40,-1,42,-1,-1,-1,-1,-1,-1,-1,-1,-1,-1,-1,-1,-1,-1,-1,-1],"split_conditions":[2.6883E4,4.82E2,2.8869E4,5.6985E0,3.4990903E2,3E0,4.6524E4,3.2E1,7.863472E2,1.982411E6,-1.682193E-1,8.028858E6,9.7580734E1,1.8228842E2,-1.6829112E-1,1E0,3.3E1,-1.682207E-1,6.5017404E7,4.8697897E2,4.8697897E2,3.6738943E2,-1.6411355E-1,-1.6823141E-1,2.9804385E2,-1.6845213E-1,2E0,-1.6710924E-1,-1.6825573E-1,2.3552728E-1,-1.7000878E-1,-1.573337E-1,-1.6860256E-1,1.6826575E-1,-1.6528113E-1,-1.962517E-1,-1.6781859E-1,1.682448E-1,-1.52889E-1,1.6827704E-1,4.9279686E-2,-1.7845877E-1,-1.91615E-1],"split_indices":[3,11,3,4,4,10,3,7,4,9,0,9,4,11,0,1,7,0,9,11,11,4,0,0,4,0,5,0,0,0,0,0,0,0,0,0,0,0,0,0,0,0,0],"split_type":[0,0,0,0,0,0,0,0,0,0,0,0,0,0,0,0,0,0,0,0,0,0,0,0,0,0,0,0,0,0,0,0,0,0,0,0,0,0,0,0,0,0,0],"sum_hessian":[9.033555E6,4.987726E6,4.0458292E6,3.923255E6,1.064471E6,3.9919608E6,5.3868496E4,3.147289E5,3.608526E6,5.259429E5,5.3852806E5,3.8510535E6,1.4090723E5,4.3829087E3,4.9485586E4,2.8714278E5,2.758613E4,3.6018555E6,6.6705464E3,5.2537056E5,5.7232715E2,3.8510185E6,3.5004997E1,2.3259707E3,1.3858127E5,3.4718987E3,9.110102E2,2.5106613E4,2.6203616E5,1.4752931E3,2.6110838E4,2.448832E3,4.2217144E3,5.253199E5,5.0671165E1,2.2895009E2,3.43377E2,3.8510095E6,8.960808E0,1.3857802E5,3.2513034E0,5.946018E2,3.164084E2],"tree_param":{"num_deleted":"0","num_feature":"12","num_nodes":"43","size_leaf_vector":"1"}},{"base_weights":[-3.4701856E-4,-1.2437625E0,1.5327684E0,-1.5750239E0,-2.1713072E-2,1.574883E0,-1.5792574E0,-1.5021633E0,-1.5764757E0,1.5731483E0,-1.5765552E-1,-1.5359443E0,1.576849E0,-1.6028674E0,-1.5771417E-1,-1.4193544E0,-1.5772587E-1,-1.576533E0,-1.5431741E0,-1.6612364E0,1.5766083E0,-1.0871946E0,-1.576565E-1,1.5768696E0,-1.5383378E-1,-1.5783799E-1,-1.6935557E-1,-1.409055E-1,-1.5965506E-1,-1.5769403E-1,-1.574247E-1,-1.581688E-1,-1.379478E-1,-1.7936331E-1,-1.5732543E-1,1.5768246E-1,-1.5336424E-1,-1.0419083E-1,-1.5105145E-1,-1.4420764E-1,1.5768747E-1],"categories":[],"categories_nodes":[],"categories_segments":[],"categories_sizes":[],"default_left":[0,0,0,0,0,0,0,0,0,0,0,0,0,0,0,0,0,0,0,0,0,0,0,0,0,0,0,0,0,0,0,0,0,0,0,0,0,0,0,0,0],"id":3,"left_children":[1,3,5,7,9,11,13,15,17,19,-1,21,23,25,-1,27,-1,29,31,33,35,37,-1,39,-1,-1,-1,-1,-1,-1,-1,-1,-1,-1,-1,-1,-1,-1,-1,-1,-1],"loss_changes":[1.656399E7,1.942253E6,5.09993E5,3.97E2,2.5372825E6,2.3484E4,6.25E-2,4.5648438E2,5E0,5.655125E3,0E0,4.2498047E1,2.48E2,6.678711E0,0E0,6.1796875E1,0E0,1E0,3.8097656E1,3.4711914E0,3.41875E2,2.347458E0,0E0,6.1E1,0E0,0E0,0E0,0E0,0E0,0E0,0E0,0E0,0E0,0E0,0E0,0E0,0E0,0E0,0E0,0E0,0E0],"parents":[2147483647,0,0,1,1,2,2,3,3,4,4,5,5,6,6,7,7,8,8,9,9,11,11,12,12,13,13,15,15,17,17,18,18,19,19,20,20,21,21,23,23],"right_children":[2,4,6,8,10,12,14,16,18,20,-1,22,24,26,-1,28,-1,30,32,34,36,38,-1,40,-1,-1,-1,-1,-1,-1,-1,-1,-1,-1,-1,-1,-1,-1,-1,-1,-1],"split_conditions":[2.6883E4,4.82E2,2.8869E4,3.3281785E-2,3.4990903E2,2.8728184E-1,4.6524E4,1E0,7.863472E2,1E0,-1.5765552E-1,3E0,3.6738943E2,1.8228842E2,-1.5771417E-1,5.6985E0,-1.5772587E-1,2E0,1.6025814E0,4.8697897E2,4.8697897E2,5.6985E0,-1.576565E-1,1E0,-1.5383378E-1,-1.5783799E-1,-1.6935557E-1,-1.409055E-1,-1.5965506E-1,-1.5769403E-1,-1.574247E-1,-1.581688E-1,-1.379478E-1,-1.7936331E-1,-1.5732543E-1,1.5768246E-1,-1.5336424E-1,-1.0419083E-1,-1.5105145E-1,-1.4420764E-1,1.5768747E-1],"split_indices":[3,11,3,2,4,2,3,1,4,5,0,10,4,11,0,4,0,5,2,11,11,4,0,10,0,0,0,0,0,0,0,0,0,0,0,0,0,0,0,0,0],"split_type":[0,0,0,0,0,0,0,0,0,0,0,0,0,0,0,0,0,0,0,0,0,0,0,0,0,0,0,0,0,0,0,0,0,0,0,0,0,0,0,0,0],"sum_hessian":[8.689079E6,4.797844E6,3.8912352E6,3.774648E6,1.02319575E6,3.8392795E6,5.1955965E4,7.376856E4,3.7008795E6,5.050977E5,5.180981E5,2.4244275E3,3.836855E6,4.210578E3,4.7745387E4,3.5091973E4,3.867659E4,3.6944918E6,6.3878145E3,5.3924243E2,5.0455844E5,2.0354697E2,2.2208806E3,3.8368302E6,2.4805822E1,3.3298606E3,8.807178E2,3.3172758E4,1.9192183E3,3.135077E6,5.594146E5,5.164149E3,1.2236655E3,2.0754292E2,3.3169952E2,5.0452384E5,3.4585697E1,1.870029E2,1.654407E1,5.875931E0,3.8368242E6],"tree_param":{"num_deleted":"0","num_feature":"12","num_nodes":"41","size_leaf_vector":"1"}},{"base_weights":[3.7520276E-5,-1.1730582E0,1.4492311E0,-1.4856577E0,-2.0322202E-2,-1.4783237E0,1.4661468E0,-1.4910105E0,-1.4557209E0,1.448998E0,-1.4923629E-1,-1.4867434E-1,1.3739806E0,1.3101133E0,1.4923804E0,-1.4001508E0,-1.4927827E-1,-1.475753E0,3.0042106E-1,1.4919633E0,-1.4984924E-1,1.4729814E-1,-1.4667878E-1,-1.4627818E0,1.4922209E0,1.4925854E0,-2.0337096E-1,-1.4872143E-1,-1.13293044E-1,-1.4902656E-1,-1.1172884E-1,-1.4920232E-1,1.4895467E-1,1.4923875E-1,-1.5154178E-1,-1.4927068E-1,-1.3106996E-1,1.4922623E-1,-1.3135931E-1,1.4925943E-1,-1.425952E-1,-1.689597E-1,1.3249254E-1],"categories":[],"categories_nodes":[],"categories_segments":[],"categories_sizes":[],"default_left":[0,0,0,0,0,0,0,0,0,0,0,0,0,0,0,0,0,0,0,0,0,0,0,0,0,0,0,0,0,0,0,0,0,0,0,0,0,0,0,0,0,0,0],"id":4,"left_children":[1,3,5,7,9,11,13,15,17,19,-1,-1,21,23,25,27,-1,29,31,33,-1,-1,-1,35,37,39,41,-1,-1,-1,-1,-1,-1,-1,-1,-1,-1,-1,-1,-1,-1,-1,-1],"loss_changes":[1.4084405E7,1.6498435E6,1.835405E5,5.75E2,2.1125785E6,5.133906E2,1.5082E4,4.9E2,1.9221625E4,6.1906125E4,0E0,0E0,1.9931297E1,2.6782394E5,1.097E3,1.3585312E3,0E0,2.808625E3,1.3138244E4,6.17E2,0E0,0E0,0E0,1.4679688E2,5.9875E1,8.45E1,8.7018866E2,0E0,0E0,0E0,0E0,0E0,0E0,0E0,0E0,0E0,0E0,0E0,0E0,0E0,0E0,0E0,0E0],"parents":[2147483647,0,0,1,1,2,2,3,3,4,4,5,5,6,6,7,7,8,8,9,9,12,12,13,13,14,14,15,15,17,17,18,18,19,19,23,23,24,24,25,25,26,26],"right_children":[2,4,6,8,10,12,14,16,18,20,-1,-1,22,24,26,28,-1,30,32,34,-1,-1,-1,36,38,40,42,-1,-1,-1,-1,-1,-1,-1,-1,-1,-1,-1,-1,-1,-1,-1,-1],"split_conditions":[3.2E1,4.82E2,6.491895E-1,2E0,4.8697897E2,3.955836E2,2.3905954E2,3.3281785E-2,1E0,1.982411E6,-1.4923629E-1,-1.4867434E-1,4.7191757E2,4E1,2.306062E6,3.2E1,-1.4927827E-1,4.181447E2,4.181447E2,2E0,-1.4984924E-1,1.4729814E-1,-1.4667878E-1,2E0,4.4E1,4.7191757E2,4.061217E2,-1.4872143E-1,-1.13293044E-1,-1.4902656E-1,-1.1172884E-1,-1.4920232E-1,1.4895467E-1,1.4923875E-1,-1.5154178E-1,-1.4927068E-1,-1.3106996E-1,1.4922623E-1,-1.3135931E-1,1.4925943E-1,-1.425952E-1,-1.689597E-1,1.3249254E-1],"split_indices":[8,11,2,5,11,11,11,2,6,9,0,0,11,8,9,7,0,11,11,5,0,0,0,10,8,11,11,0,0,0,0,0,0,0,0,0,0,0,0,0,0,0,0],"split_type":[0,0,0,0,0,0,0,0,0,0,0,0,0,0,0,0,0,0,0,0,0,0,0,0,0,0,0,0,0,0,0,0,0,0,0,0,0,0,0,0,0,0,0],"sum_hessian":[8.284734E6,4.5785125E6,3.7062215E6,3.6017795E6,9.767328E5,2.1291406E4,3.6849302E6,3.0554058E6,5.463739E5,4.8881806E5,4.8791472E5,2.1229219E4,6.21876E1,5.303759E5,3.1545542E6,5.8465348E4,2.9969402E6,5.402119E5,6.161975E3,4.817955E5,7.0225845E3,6.0558617E1,1.628981E0,3.268497E4,4.9769094E5,3.154173E6,3.811222E2,4.409435E4,1.4370997E4,5.1918912E5,2.1022785E4,2.4574504E3,3.704525E3,4.8172803E5,6.74509E1,2.7303654E4,5.381318E3,4.9768403E5,6.9061995E0,3.154164E6,9.199133E0,1.9316704E2,1.8795515E2],"tree_param":{"num_deleted":"0","num_feature":"12","num_nodes":"43","size_leaf_vector":"1"}},{"base_weights":[-2.72529E-4,-1.1233181E0,1.3846502E0,-1.4224006E0,-1.95989E-2,1.422662E0,-1.4269403E0,-1.3434429E0,-1.4239895E0,1.4209749E0,-1.423963E0,-1.3864084E0,1.4244653E0,-1.4529124E0,-1.4245962E-1,-1.4169304E0,-1.0611438E0,-1.4240593E0,-1.3838003E0,1.4241652E0,-1.4930727E0,-1.424302E-1,-1.4056618E0,-9.965465E-1,-1.4242524E-1,1.4244815E0,-1.384487E-1,-1.4372379E-1,-1.6099669E0,-1.3737454E-1,-1.4279677E-1,2.1902655E-1,-1.4694677E-1,-1.4220898E-1,-1.4244829E-1,-1.4301305E-1,-1.1907835E-1,1.424443E-1,-1.3962251E-1,-1.5841658E-1,-1.4202468E-1,-1.4121045E-1,-8.4722005E-2,-1.7660032E-1,-7.169106E-2,-1.3275416E-1,1.4244866E-1,-1.7307274E-1,-1.5271698E-1],"categories":[],"categories_nodes":[],"categories_segments":[],"categories_sizes":[],"default_left":[0,0,0,0,0,0,0,0,0,0,0,0,0,0,0,0,0,0,0,0,0,0,0,0,0,0,0,0,0,0,0,0,0,0,0,0,0,0,0,0,0,0,0,0,0,0,0,0,0],"id":5,"left_children":[1,3,5,7,9,11,13,15,17,19,21,23,25,27,-1,29,31,33,35,37,39,-1,41,43,-1,45,-1,-1,47,-1,-1,-1,-1,-1,-1,-1,-1,-1,-1,-1,-1,-1,-1,-1,-1,-1,-1,-1,-1],"loss_changes":[1.2189171E7,1.428579E6,3.750585E5,4.255E2,1.8666625E6,1.7542E4,7.734375E-1,1.3923125E3,7.5E0,4.2365625E3,8.75E-1,3.1361816E1,1.59E2,7.102539E0,0E0,2.3445312E1,1.84325E4,1E0,5.0308594E1,3.58125E2,1.0576172E0,0E0,2.9648438E1,4.1750565E1,0E0,5E1,0E0,0E0,7.444458E-1,0E0,0E0,0E0,0E0,0E0,0E0,0E0,0E0,0E0,0E0,0E0,0E0,0E0,0E0,0E0,0E0,0E0,0E0,0E0,0E0],"parents":[2147483647,0,0,1,1,2,2,3,3,4,4,5,5,6,6,7,7,8,8,9,9,10,10,11,11,12,12,13,13,15,15,16,16,17,17,18,18,19,19,20,20,22,22,23,23,25,25,28,28],"right_children":[2,4,6,8,10,12,14,16,18,20,22,24,26,28,-1,30,32,34,36,38,40,-1,42,44,-1,46,-1,-1,48,-1,-1,-1,-1,-1,-1,-1,-1,-1,-1,-1,-1,-1,-1,-1,-1,-1,-1,-1,-1],"split_conditions":[2.6883E4,4.82E2,2.8869E4,3.3281785E-2,3.4990903E2,2.8728184E-1,4.6524E4,3.2E1,7.863472E2,1.982411E6,7.287516E2,3E0,3.6738943E2,2.6915323E2,-1.4245962E-1,8E0,3.3E1,1.8865525E0,1.6025814E0,4.8697897E2,4.8697897E2,-1.424302E-1,7.863472E2,3.6E1,-1.4242524E-1,1E0,-1.384487E-1,-1.4372379E-1,2.306062E6,-1.3737454E-1,-1.4279677E-1,2.1902655E-1,-1.4694677E-1,-1.4220898E-1,-1.4244829E-1,-1.4301305E-1,-1.1907835E-1,1.424443E-1,-1.3962251E-1,-1.5841658E-1,-1.4202468E-1,-1.4121045E-1,-8.4722005E-2,-1.7660032E-1,-7.169106E-2,-1.3275416E-1,1.4244866E-1,-1.7307274E-1,-1.5271698E-1],"split_indices":[3,11,3,2,4,2,3,7,4,9,11,10,4,11,0,8,7,2,2,11,11,0,4,8,0,10,0,0,9,0,0,0,0,0,0,0,0,0,0,0,0,0,0,0,0,0,0,0,0],"split_type":[0,0,0,0,0,0,0,0,0,0,0,0,0,0,0,0,0,0,0,0,0,0,0,0,0,0,0,0,0,0,0,0,0,0,0,0,0,0,0,0,0,0,0,0,0,0,0,0,0],"sum_hessian":[7.837024E6,4.3276755E6,3.5093482E6,3.4049988E6,9.226768E5,3.4625365E6,4.6811906E4,6.718569E4,3.337813E6,4.554666E5,4.6721022E5,2.2208389E3,3.4603155E6,3.8241328E3,4.2987773E4,5.330533E4,1.3880361E4,3.3319978E6,5.815252E3,4.54969E5,4.9760056E2,4.5863788E5,8.572361E3,1.9892136E2,2.0219175E3,3.4602962E6,1.9441486E1,3.4863347E3,3.377981E2,1.0876073E4,4.2429254E4,1.5481731E3,1.2332188E4,5.905127E5,2.741485E6,4.684429E3,1.1308231E3,4.5492472E5,4.4276333E1,2.1185394E2,2.8574664E2,8.47308E3,9.928138E1,5.160573E1,1.4731561E2,5.929196E0,3.4602902E6,1.2930371E2,2.0849438E2],"tree_param":{"num_deleted":"0","num_feature":"12","num_nodes":"49","size_leaf_vector":"1"}},{"base_weights":[-2.4092151E-4,-1.0783485E0,1.3298279E0,-1.3659952E0,-3.446152E-1,1.3663852E0,-1.3701948E0,-1.2888157E0,-1.367702E0,1.3191699E0,-1.3488696E0,-1.3155524E0,1.3680968E0,-1.3681579E-1,-1.3917475E0,-1.3613367E0,-1.013262E0,-1.3654766E0,-1.3681062E0,1.357251E0,-1.3704926E-1,-1.2766172E0,-1.3654491E0,-8.119471E-1,-1.3678166E-1,1.368113E0,-1.3232048E-1,-1.3792273E-1,-1.5505405E-1,-1.3236283E-1,-1.3710193E-1,1.9040778E-1,-1.405312E-1,-1.3107745E-1,-1.3682517E-1,-1.3681014E-1,-1.609902E-1,1.3675311E-1,-8.8760994E-2,-5.4032106E-2,-1.3139085E-1,-1.3440493E-1,-1.3661061E-1,-1.6311315E-1,-5.4051857E-2,-1.2701172E-1,1.3681184E-1],"categories":[],"categories_nodes":[],"categories_segments":[],"categories_sizes":[],"default_left":[0,0,0,0,0,0,0,0,0,0,0,0,0,0,0,0,0,0,0,0,0,0,0,0,0,0,0,0,0,0,0,0,0,0,0,0,0,0,0,0,0,0,0,0,0,0,0],"id":6,"left_children":[1,3,5,7,9,11,13,15,17,19,21,23,25,-1,27,29,31,33,35,37,-1,39,41,43,-1,45,-1,-1,-1,-1,-1,-1,-1,-1,-1,-1,-1,-1,-1,-1,-1,-1,-1,-1,-1,-1,-1],"loss_changes":[1.0566092E7,8.58938E5,3.25608E5,3.825E2,1.9150402E6,1.4943E4,3.90625E-2,1.2630234E3,1.5E0,4.4189188E4,8.54375E2,5.3538574E1,1.43E2,0E0,5.311035E0,1.646875E1,1.5084885E4,6.5E1,5E-1,9.817875E3,0E0,3.6624375E3,6.375E0,4.3072388E1,0E0,4.8E1,0E0,0E0,0E0,0E0,0E0,0E0,0E0,0E0,0E0,0E0,0E0,0E0,0E0,0E0,0E0,0E0,0E0,0E0,0E0,0E0,0E0],"parents":[2147483647,0,0,1,1,2,2,3,3,4,4,5,5,6,6,7,7,8,8,9,9,10,10,11,11,12,12,14,14,15,15,16,16,17,17,18,18,19,19,21,21,22,22,23,23,25,25],"right_children":[2,4,6,8,10,12,14,16,18,20,22,24,26,-1,28,30,32,34,36,38,-1,40,42,44,-1,46,-1,-1,-1,-1,-1,-1,-1,-1,-1,-1,-1,-1,-1,-1,-1,-1,-1,-1,-1,-1,-1],"split_conditions":[2.6883E4,3.2056824E2,2.8869E4,3.3281785E-2,3.2554565E2,2.8728184E-1,3.2E1,3.2E1,1.4490367E0,1.982411E6,1.513642E6,3E0,3.6738943E2,-1.3681579E-1,1.9713371E2,8E0,3.3E1,5.057493E6,3.6E1,3.8057272E0,-1.3704926E-1,4.3233037E0,1.59678E6,3.6E1,-1.3678166E-1,1E0,-1.3232048E-1,-1.3792273E-1,-1.5505405E-1,-1.3236283E-1,-1.3710193E-1,1.9040778E-1,-1.405312E-1,-1.3107745E-1,-1.3682517E-1,-1.3681014E-1,-1.609902E-1,1.3675311E-1,-8.8760994E-2,-5.4032106E-2,-1.3139085E-1,-1.3440493E-1,-1.3661061E-1,-1.6311315E-1,-5.4051857E-2,-1.2701172E-1,1.3681184E-1],"split_indices":[3,4,3,2,4,2,8,7,2,9,9,10,4,0,4,8,7,9,8,2,0,2,9,8,0,10,0,0,0,0,0,0,0,0,0,0,0,0,0,0,0,0,0,0,0,0,0],"split_type":[0,0,0,0,0,0,0,0,0,0,0,0,0,0,0,0,0,0,0,0,0,0,0,0,0,0,0,0,0,0,0,0,0,0,0,0,0,0,0,0,0,0,0,0,0,0,0],"sum_hessian":[7.368482E6,4.0697138E6,3.2987682E6,2.9235775E6,1.146136E6,3.2547012E6,4.406692E4,6.3271727E4,2.860306E6,4.3140734E5,7.147287E5,2.0753003E3,3.252626E6,4.03207E4,3.74622E3,5.008601E4,1.3185714E4,4.4019406E5,2.4201118E6,4.253851E5,6.0222656E3,1.3341055E5,5.813181E5,1.9667952E2,1.8786207E3,3.252607E6,1.912946E1,3.4814104E3,2.6480957E2,1.0261338E4,3.9824676E4,1.5616007E3,1.1624113E4,2.12758E4,4.1891828E5,2.4200692E6,4.26124E1,4.2344638E5,1.9387224E3,6.431893E3,1.2697866E5,1.7378756E4,5.639394E5,4.770229E1,1.4897722E2,6.0698824E0,3.2526008E6],"tree_param":{"num_deleted":"0","num_feature":"12","num_nodes":"47","size_leaf_vector":"1"}},{"base_weights":[-4.769244E-4,-1.0408236E0,1.2840561E0,-1.31897E0,-1.6623368E-2,1.3193367E0,-1.3227943E-1,-1.2408156E0,-1.3205527E0,1.3188914E0,-1.3212494E0,-1.2637217E0,1.3210065E0,-1.1601859E0,-1.3211408E-1,-1.3206257E0,-1.2787504E0,1.3219271E0,-1.3693163E-1,-1.3215457E-1,-1.3052115E0,-7.3867625E-1,-1.320685E-1,1.3210229E0,-1.2801178E-1,-1.2746376E-1,-1.1047447E-1,-1.3184182E-1,-1.3211006E-1,-1.3252348E-1,-1.0882938E-1,1.3221894E-1,-1.3155183E-1,-1.3123272E-1,-7.111817E-2,-1.5419425E-1,-4.6424855E-2,-1.20362595E-1,1.3210277E-1],"categories":[],"categories_nodes":[],"categories_segments":[],"categories_sizes":[],"default_left":[0,0,0,0,0,0,0,0,0,0,0,0,0,0,0,0,0,0,0,0,0,0,0,0,0,0,0,0,0,0,0,0,0,0,0,0,0,0,0],"id":7,"left_children":[1,3,5,7,9,11,-1,13,15,17,19,21,23,25,-1,27,29,31,-1,-1,33,35,-1,37,-1,-1,-1,-1,-1,-1,-1,-1,-1,-1,-1,-1,-1,-1,-1],"loss_changes":[9.211851E6,1.0849928E6,2.83698E5,3.69E2,1.4172654E6,1.31285E4,0E0,3.836172E2,7.5E0,3.2819375E3,1.875E-1,5.784424E1,1.315E2,1.8695703E2,0E0,1E0,4.414453E1,2.795625E2,0E0,0E0,3.0947266E1,4.2215584E1,0E0,3.75E1,0E0,0E0,0E0,0E0,0E0,0E0,0E0,0E0,0E0,0E0,0E0,0E0,0E0,0E0,0E0],"parents":[2147483647,0,0,1,1,2,2,3,3,4,4,5,5,7,7,8,8,9,9,10,10,11,11,12,12,13,13,15,15,16,16,17,17,20,20,21,21,23,23],"right_children":[2,4,6,8,10,12,-1,14,16,18,20,22,24,26,-1,28,30,32,-1,-1,34,36,-1,38,-1,-1,-1,-1,-1,-1,-1,-1,-1,-1,-1,-1,-1,-1,-1],"split_conditions":[2.6883E4,4.82E2,2.8869E4,3.3281785E-2,3.4990903E2,2.8728184E-1,-1.3227943E-1,2E1,7.863472E2,1.982411E6,7.287516E2,3E0,3.6738943E2,8E0,-1.3211408E-1,1.8865525E0,1.6025814E0,4.8697897E2,-1.3693163E-1,-1.3215457E-1,7.863472E2,3.6E1,-1.320685E-1,1E0,-1.2801178E-1,-1.2746376E-1,-1.1047447E-1,-1.3184182E-1,-1.3211006E-1,-1.3252348E-1,-1.0882938E-1,1.3221894E-1,-1.3155183E-1,-1.3123272E-1,-7.111817E-2,-1.5419425E-1,-4.6424855E-2,-1.20362595E-1,1.3210277E-1],"split_indices":[3,11,3,2,4,2,0,8,4,9,11,10,4,8,0,2,2,11,0,0,4,8,0,10,0,0,0,0,0,0,0,0,0,0,0,0,0,0,0],"split_type":[0,0,0,0,0,0,0,0,0,0,0,0,0,0,0,0,0,0,0,0,0,0,0,0,0,0,0,0,0,0,0,0,0,0,0,0,0,0,0],"sum_hessian":[6.8932415E6,3.8086258E6,3.0846158E6,2.9952048E6,8.13421E5,3.043427E6,4.1188652E4,5.946648E4,2.9357382E6,4.019521E5,4.1146888E5,1.9656748E3,3.0414615E6,2.968469E4,2.9781791E4,2.93059E6,5.1482695E3,4.0149922E5,4.5288358E2,4.039276E5,7.5412935E3,1.9375465E2,1.77192E3,3.0414428E6,1.864368E1,9.679851E3,2.0004838E4,5.1934588E5,2.4112442E6,4.1334634E3,1.014806E3,4.0145978E5,3.9430946E1,7.450833E3,9.046047E1,4.8162216E1,1.4559244E2,5.2098746E0,3.0414375E6],"tree_param":{"num_deleted":"0","num_feature":"12","num_nodes":"39","size_leaf_vector":"1"}},{"base_weights":[1.1877647E-4,-1.0090064E0,1.245451E0,-4.180838E-1,-1.256847E0,1.2796564E0,-1.2828074E-1,9.7284305E-1,-1.2806937E0,-1.0851609E0,-1.2747784E0,-1.2183977E0,1.2812731E0,-1.1800052E0,1.2759565E0,-1.15964E0,-1.2817875E-1,5.275243E-1,-1.2766529E0,-1.2813582E-1,-1.2469563E0,-6.705548E-1,-1.2808849E-1,1.281286E0,-1.23807095E-1,-1.2721628E-1,-8.584669E-2,1.2810034E-1,-5.892966E-2,-1.2828302E-1,-5.8379002E-2,-1.2848006E-1,1.218156E-1,-1.2805687E-1,-1.12152E-1,-2.3133453E-2,-1.2619993E-1,-1.4708759E-1,-4.1101176E-2,-9.457518E-2,1.2812875E-1],"categories":[],"categories_nodes":[],"categories_segments":[],"categories_sizes":[],"default_left":[0,0,0,0,0,0,0,0,0,0,0,0,0,0,0,0,0,0,0,0,0,0,0,0,0,0,0,0,0,0,0,0,0,0,0,0,0,0,0,0,0],"id":8,"left_children":[1,3,5,7,9,11,-1,13,15,17,19,21,23,25,27,29,-1,31,33,-1,35,37,-1,39,-1,-1,-1,-1,-1,-1,-1,-1,-1,-1,-1,-1,-1,-1,-1,-1,-1],"loss_changes":[8.073486E6,5.1972875E5,2.486865E5,1.2581344E6,7.6955E3,1.1461E4,0E0,2.6192656E5,8.4125E1,7.301547E4,4.1275E2,6.1979736E1,9.35E1,1.4668516E3,3.3128125E3,4.1110986E2,0E0,3.1412207E4,1.2696875E2,0E0,6.6150625E3,3.8868668E1,0E0,1E1,0E0,0E0,0E0,0E0,0E0,0E0,0E0,0E0,0E0,0E0,0E0,0E0,0E0,0E0,0E0,0E0,0E0],"parents":[2147483647,0,0,1,1,2,2,3,3,4,4,5,5,7,7,8,8,9,9,10,10,11,11,12,12,13,13,14,14,15,15,17,17,18,18,20,20,21,21,23,23],"right_children":[2,4,6,8,10,12,-1,14,16,18,20,22,24,26,28,30,-1,32,34,-1,36,38,-1,40,-1,-1,-1,-1,-1,-1,-1,-1,-1,-1,-1,-1,-1,-1,-1,-1,-1],"split_conditions":[2.6883E4,1.1548566E0,2.8869E4,1.982411E6,2.7705436E0,3.155646E-1,-1.2828074E-1,1E0,5.057493E6,1.920455E6,1E0,3E0,8.028858E6,3.2E1,2E0,4.998155E6,-1.2817875E-1,1E0,5.2730376E7,-1.2813582E-1,3.7000096E0,3.6E1,-1.2808849E-1,1E0,-1.23807095E-1,-1.2721628E-1,-8.584669E-2,1.2810034E-1,-5.892966E-2,-1.2828302E-1,-5.8379002E-2,-1.2848006E-1,1.218156E-1,-1.2805687E-1,-1.12152E-1,-2.3133453E-2,-1.2619993E-1,-1.4708759E-1,-4.1101176E-2,-9.457518E-2,1.2812875E-1],"split_indices":[3,2,3,9,2,2,0,5,9,9,5,10,9,7,5,9,0,5,9,0,2,8,0,10,0,0,0,0,0,0,0,0,0,0,0,0,0,0,0,0,0],"split_type":[0,0,0,0,0,0,0,0,0,0,0,0,0,0,0,0,0,0,0,0,0,0,0,0,0,0,0,0,0,0,0,0,0,0,0,0,0,0,0,0,0],"sum_hessian":[6.4243725E6,3.5487378E6,2.8756345E6,1.0485942E6,2.5001435E6,2.8372492E6,3.8385387E4,4.0138138E5,6.472129E5,2.3643319E5,2.2637102E6,1.8346084E3,2.8354145E6,4.953792E4,3.5184344E5,5.804799E3,6.4140806E5,2.5094414E4,2.1133877E5,1.8307098E6,4.3300053E5,1.8903296E2,1.6455754E3,2.8354005E6,1.3922719E1,3.8500227E4,1.1037694E4,3.5089434E5,9.490892E2,4.780821E3,1.0239779E3,6.9239727E3,1.8170441E4,2.061285E5,5.2102646E3,6.320045E3,4.2668047E5,4.514811E1,1.4388486E2,1.4144254E0,2.8353992E6],"tree_param":{"num_deleted":"0","num_feature":"12","num_nodes":"41","size_leaf_vector":"1"}},{"base_weights":[-1.6231938E-4,-9.8234165E-1,1.2125449E0,-1.2450035E0,-1.4935188E-2,1.2458395E0,-1.24879204E-1,-1.2233771E0,-1.2469066E0,1.2466468E0,-1.2476089E0,1.2458624E0,-1.23575844E-1,-1.2457674E0,-1.0035627E0,-1.2470042E0,-1.1949184E0,-1.2805551E-1,1.2494861E0,-1.247974E-1,-1.228012E0,1.2473011E0,1.2064613E0,-1.20880306E-1,-1.2484733E-1,2.1187428E-1,-1.267584E-1,-1.2475812E-1,-1.2437644E-1,-1.0839331E-1,-1.2543067E-1,1.24965884E-1,-1.4334318E-1,-1.2360342E-1,-5.833381E-2,1.24730565E-1,-2.4365814E-1,-1.2475598E-1,1.2475659E-1],"categories":[],"categories_nodes":[],"categories_segments":[],"categories_sizes":[],"default_left":[0,0,0,0,0,0,0,0,0,0,0,0,0,0,0,0,0,0,0,0,0,0,0,0,0,0,0,0,0,0,0,0,0,0,0,0,0,0,0],"id":9,"left_children":[1,3,5,7,9,11,-1,13,15,17,19,21,-1,23,25,27,29,-1,31,-1,33,35,37,-1,-1,-1,-1,-1,-1,-1,-1,-1,-1,-1,-1,-1,-1,-1,-1],"loss_changes":[7.102358E6,8.3715475E5,2.186665E5,1.05E2,1.0940376E6,1.5125E2,0E0,1.0304688E3,1.125E1,2.496375E3,1E0,1.475E2,0E0,1.753125E1,1.5982227E4,2.5E0,2.8172852E1,0E0,1.626875E2,0E0,3.3251953E1,4.575E1,9.359656E3,0E0,0E0,0E0,0E0,0E0,0E0,0E0,0E0,0E0,0E0,0E0,0E0,0E0,0E0,0E0,0E0],"parents":[2147483647,0,0,1,1,2,2,3,3,4,4,5,5,7,7,8,8,9,9,10,10,11,11,13,13,14,14,15,15,16,16,18,18,20,20,21,21,22,22],"right_children":[2,4,6,8,10,12,-1,14,16,18,20,22,-1,24,26,28,30,-1,32,-1,34,36,38,-1,-1,-1,-1,-1,-1,-1,-1,-1,-1,-1,-1,-1,-1,-1,-1],"split_conditions":[2.6883E4,4.82E2,2.8869E4,5.6985E0,3.4990903E2,3.6738943E2,-1.24879204E-1,3.2E1,7.863472E2,1E0,7.287516E2,3E0,-1.23575844E-1,8E0,3.3E1,2E0,3.6687115E2,-1.2805551E-1,2E0,-1.247974E-1,7.863472E2,4.7191757E2,9.7580734E1,-1.20880306E-1,-1.2484733E-1,2.1187428E-1,-1.267584E-1,-1.2475812E-1,-1.2437644E-1,-1.0839331E-1,-1.2543067E-1,1.24965884E-1,-1.4334318E-1,-1.2360342E-1,-5.833381E-2,1.24730565E-1,-2.4365814E-1,-1.2475598E-1,1.2475659E-1],"split_indices":[3,11,3,4,4,4,0,7,4,5,11,10,0,8,7,5,11,0,5,0,4,11,4,0,0,0,0,0,0,0,0,0,0,0,0,0,0,0,0],"split_type":[0,0,0,0,0,0,0,0,0,0,0,0,0,0,0,0,0,0,0,0,0,0,0,0,0,0,0,0,0,0,0,0,0,0,0,0,0,0,0],"sum_hessian":[5.962874E6,3.2945762E6,2.668298E6,2.5910708E6,7.035054E5,2.6326862E6,3.5611918E4,2.0963219E5,2.3814388E6,3.4767588E5,3.5582947E5,2.6326622E6,2.3793335E1,1.902489E5,1.9383291E4,2.376959E6,4.4795474E3,3.8967368E2,3.4728622E5,3.4926138E5,6.568101E3,2.5398908E6,9.277159E4,1.3007771E4,1.7724112E5,1.5107068E3,1.7872584E4,2.0173141E6,3.5964497E5,1.5681763E3,2.9113708E3,3.472644E5,2.1819431E1,6.4864683E3,8.163281E1,2.5398882E6,2.4789858E0,1.5278307E3,9.1243766E4],"tree_param":{"num_deleted":"0","num_feature":"12","num_nodes":"39","size_leaf_vector":"1"}},{"base_weights":[-4.283413E-6,-9.592605E-1,1.1842887E0,-1.2158841E0,-1.4352683E-2,1.2168218E0,-1.2195902E-1,-1.1204605E0,-1.2178512E0,1.1844102E0,-1.2184252E0,-1.14636E0,1.2183868E0,-1.2074345E0,-8.139289E-1,-1.2185466E-1,-1.2139729E0,-1.2242236E-1,1.2035563E0,-1.2188794E-1,-1.1943426E0,-6.331879E-1,-1.217875E-1,1.2183979E0,-1.6780015E0,-1.15358114E-1,-1.22136734E-1,1.7248194E-1,-1.2537314E-1,-1.21737026E-1,-1.1769736E-1,1.2179178E-1,-1.2204969E-1,-1.0899558E-1,-1.2098848E-1,-1.4416094E-1,-4.062447E-2,-1.2023746E-1,1.21840894E-1,-2.2012341E-1,-1.1337638E-1],"categories":[],"categories_nodes":[],"categories_segments":[],"categories_sizes":[],"default_left":[0,0,0,0,0,0,0,0,0,0,0,0,0,0,0,0,0,0,0,0,0,0,0,0,0,0,0,0,0,0,0,0,0,0,0,0,0,0,0,0,0],"id":10,"left_children":[1,3,5,7,9,11,-1,13,15,17,19,21,23,25,27,-1,29,-1,31,-1,33,35,-1,37,39,-1,-1,-1,-1,-1,-1,-1,-1,-1,-1,-1,-1,-1,-1,-1,-1],"loss_changes":[6.269272E6,7.393245E5,1.93137E5,4.4875E2,9.399349E5,9.012E3,0E0,1.2904648E3,4.75E0,1.5049844E4,2.09375E0,5.8424316E1,8.075E1,2.690625E1,1.1960048E4,0E0,4.35E1,0E0,1.1272125E4,0E0,8.519531E0,3.5992104E1,0E0,6.675E1,2.7708435E-1,0E0,0E0,0E0,0E0,0E0,0E0,0E0,0E0,0E0,0E0,0E0,0E0,0E0,0E0,0E0,0E0],"parents":[2147483647,0,0,1,1,2,2,3,3,4,4,5,5,7,7,8,8,9,9,10,10,11,11,12,12,13,13,14,14,16,16,18,18,20,20,21,21,23,23,24,24],"right_children":[2,4,6,8,10,12,-1,14,16,18,20,22,24,26,28,-1,30,-1,32,-1,34,36,-1,38,40,-1,-1,-1,-1,-1,-1,-1,-1,-1,-1,-1,-1,-1,-1,-1,-1],"split_conditions":[2.6883E4,4.82E2,2.8869E4,3.3281785E-2,4.8697897E2,2.8728184E-1,-1.2195902E-1,3.2E1,2E0,1E0,7.287516E2,3E0,4.7191757E2,8E0,3.3E1,-1.2185466E-1,3.5732104E2,-1.2242236E-1,2E0,-1.2188794E-1,1.040563E0,3.2E1,-1.217875E-1,1E0,4.82E2,-1.15358114E-1,-1.22136734E-1,1.7248194E-1,-1.2537314E-1,-1.21737026E-1,-1.1769736E-1,1.2179178E-1,-1.2204969E-1,-1.0899558E-1,-1.2098848E-1,-1.4416094E-1,-4.062447E-2,-1.2023746E-1,1.21840894E-1,-2.2012341E-1,-1.1337638E-1],"split_indices":[3,11,3,2,11,2,0,7,5,5,11,10,11,8,7,0,11,0,5,0,2,8,0,10,11,0,0,0,0,0,0,0,0,0,0,0,0,0,0,0,0],"split_type":[0,0,0,0,0,0,0,0,0,0,0,0,0,0,0,0,0,0,0,0,0,0,0,0,0,0,0,0,0,0,0,0,0,0,0,0,0,0,0,0,0],"sum_hessian":[5.5185265E6,3.0489398E6,2.4695868E6,2.3977458E6,6.511941E5,2.436611E6,3.297556E4,4.8440117E4,2.3493055E6,3.2631656E5,3.2487756E5,1.6119744E3,2.4349992E6,3.7731426E4,1.0708693E4,1.9918194E6,3.5748628E5,2.572913E3,3.2374366E5,3.188153E5,6.0622773E3,1.9837099E2,1.4136033E3,2.4349905E6,8.737097E0,7.772576E3,2.9958848E4,1.5807771E3,9.127916E3,3.2739334E5,3.0092936E4,3.2183738E5,1.9062651E3,7.948574E2,5.2674194E3,4.230807E1,1.5606291E2,1.0651924E1,2.4349798E6,2.9022455E0,5.834851E0],"tree_param":{"num_deleted":"0","num_feature":"12","num_nodes":"41","size_leaf_vector":"1"}},{"base_weights":[-1.7579147E-4,-9.3911654E-1,1.1599468E0,-1.1907015E0,-1.3631945E-2,1.1917634E0,-1.1943921E-1,-1.0932965E0,-1.192722E0,1.1921495E0,-1.1933924E0,-1.1250099E-1,1.193314E0,-1.1816262E0,-7.8599304E-1,-1.1928194E0,-1.137466E0,1.1949505E0,-1.2265372E-1,-1.193753E-1,-1.1740199E0,1.1933309E0,-1.1891975E-1,-1.15928434E-1,-1.1937051E-1,1.5675962E-1,-1.2238125E-1,-1.1895622E-1,-1.1935206E-1,-1.1967969E-1,-9.033286E-2,1.1952072E-1,-1.17595725E-1,-1.1800122E-1,-6.9191635E-2,1.19333565E-1,-1.896023E-1],"categories":[],"categories_nodes":[],"categories_segments":[],"categories_sizes":[],"default_left":[0,0,0,0,0,0,0,0,0,0,0,0,0,0,0,0,0,0,0,0,0,0,0,0,0,0,0,0,0,0,0,0,0,0,0,0,0],"id":11,"left_children":[1,3,5,7,9,11,-1,13,15,17,19,-1,21,23,25,27,29,31,-1,-1,33,35,-1,-1,-1,-1,-1,-1,-1,-1,-1,-1,-1,-1,-1,-1,-1],"loss_changes":[5.547415E6,6.55361E5,1.70643E5,4.345E2,8.5580206E5,8.07525E3,0E0,1.2201758E3,1E1,2.0171562E3,6.5625E-1,0E0,9.2E1,8.042969E0,1.0354427E4,3.75E0,5.223633E1,1.8215625E2,0E0,0E0,1.5408691E1,3.525E1,0E0,0E0,0E0,0E0,0E0,0E0,0E0,0E0,0E0,0E0,0E0,0E0,0E0,0E0,0E0],"parents":[2147483647,0,0,1,1,2,2,3,3,4,4,5,5,7,7,8,8,9,9,10,10,12,12,13,13,14,14,15,15,16,16,17,17,20,20,21,21],"right_children":[2,4,6,8,10,12,-1,14,16,18,20,-1,22,24,26,28,30,32,-1,-1,34,36,-1,-1,-1,-1,-1,-1,-1,-1,-1,-1,-1,-1,-1,-1,-1],"split_conditions":[2.6883E4,4.82E2,2.8869E4,3.3281785E-2,3.4990903E2,2.8728184E-1,-1.1943921E-1,3.2E1,7.863472E2,1.982411E6,7.287516E2,-1.1250099E-1,3.6738943E2,1E0,3.3E1,1.8865525E0,1.6025814E0,4.8697897E2,-1.2265372E-1,-1.193753E-1,7.863472E2,4.7191757E2,-1.1891975E-1,-1.15928434E-1,-1.1937051E-1,1.5675962E-1,-1.2238125E-1,-1.1895622E-1,-1.1935206E-1,-1.1967969E-1,-9.033286E-2,1.1952072E-1,-1.17595725E-1,-1.1800122E-1,-6.9191635E-2,1.19333565E-1,-1.896023E-1],"split_indices":[3,11,3,2,4,2,0,7,4,9,11,0,4,1,7,2,2,11,0,0,4,11,0,0,0,0,0,0,0,0,0,0,0,0,0,0,0],"split_type":[0,0,0,0,0,0,0,0,0,0,0,0,0,0,0,0,0,0,0,0,0,0,0,0,0,0,0,0,0,0,0,0,0,0,0,0,0],"sum_hessian":[5.0927035E6,2.8146652E6,2.2780382E6,2.213063E6,6.0160225E5,2.2476638E6,3.0374566E4,4.498499E4,2.168078E6,2.9752006E5,3.040822E5,1.5027415E3,2.246161E6,3.4939367E4,1.0045619E4,2.164241E6,3.8370872E3,2.971764E5,3.4364716E2,2.9846688E5,5.6153413E3,2.2461455E6,1.5442835E1,1.2294991E4,2.2644377E4,1.5752036E3,8.470416E3,3.83661E5,1.78058E6,3.0580571E3,7.790301E2,2.9714475E5,3.1663307E1,5.5449717E3,7.036959E1,2.2461428E6,2.8475583E0],"tree_param":{"num_deleted":"0","num_feature":"12","num_nodes":"37","size_leaf_vector":"1"}},{"base_weights":[-8.709145E-7,-9.220896E-1,1.1387482E0,-1.1688241E0,-1.3966186E-2,1.1700232E0,-1.1725267E-1,-1.1460466E0,-1.1708324E0,1.1702867E0,-1.1715411E0,1.1700437E0,-1.1518164E-1,-1.1690315E0,-9.25009E-1,-1.1709658E0,-1.1007673E0,-1.19564235E-1,1.172953E0,-1.1719328E-1,-1.1505133E0,1.1597993E0,1.1716663E0,-1.12367846E-1,-1.1723918E-1,1.6423903E-1,-1.18462205E-1,-1.1717322E-1,-1.1666667E-1,-9.59523E-2,-1.1774611E-1,1.1731229E-1,-1.3253498E-1,-1.1606107E-1,-4.026323E-2,-2.0448048E-1,1.1607164E-1,1.1716715E-1,-1.6857289E-1],"categories":[],"categories_nodes":[],"categories_segments":[],"categories_sizes":[],"default_left":[0,0,0,0,0,0,0,0,0,0,0,0,0,0,0,0,0,0,0,0,0,0,0,0,0,0,0,0,0,0,0,0,0,0,0,0,0,0,0],"id":12,"left_children":[1,3,5,7,9,11,-1,13,15,17,19,21,-1,23,25,27,29,-1,31,-1,33,35,37,-1,-1,-1,-1,-1,-1,-1,-1,-1,-1,-1,-1,-1,-1,-1,-1],"loss_changes":[4.9251945E6,5.8073975E5,1.517065E5,9.2E1,7.591076E5,1.0025E2,0E0,8.381875E2,1.65E1,1.7280938E3,9.6875E-1,3.3E1,0E0,2.146875E1,1.0376188E4,4.5E0,3.7590332E1,0E0,1.175625E2,0E0,3.8623535E1,8.348125E2,2.875E1,0E0,0E0,0E0,0E0,0E0,0E0,0E0,0E0,0E0,0E0,0E0,0E0,0E0,0E0,0E0,0E0],"parents":[2147483647,0,0,1,1,2,2,3,3,4,4,5,5,7,7,8,8,9,9,10,10,11,11,13,13,14,14,15,15,16,16,18,18,20,20,21,21,22,22],"right_children":[2,4,6,8,10,12,-1,14,16,18,20,22,-1,24,26,28,30,-1,32,-1,34,36,38,-1,-1,-1,-1,-1,-1,-1,-1,-1,-1,-1,-1,-1,-1,-1,-1],"split_conditions":[2.6883E4,4.82E2,2.8869E4,5.6985E0,3.4990903E2,3.6738943E2,-1.1725267E-1,3.2E1,7.863472E2,1E0,7.287516E2,1.3827519E2,-1.1518164E-1,8E0,3.3E1,2E0,3.6687115E2,-1.19564235E-1,2E0,-1.1719328E-1,7.863472E2,3.6E1,4.7191757E2,-1.12367846E-1,-1.1723918E-1,1.6423903E-1,-1.18462205E-1,-1.1717322E-1,-1.1666667E-1,-9.59523E-2,-1.1774611E-1,1.1731229E-1,-1.3253498E-1,-1.1606107E-1,-4.026323E-2,-2.0448048E-1,1.1607164E-1,1.1716715E-1,-1.6857289E-1],"split_indices":[3,11,3,4,4,4,0,7,4,5,11,4,0,8,7,5,11,0,5,0,4,8,11,0,0,0,0,0,0,0,0,0,0,0,0,0,0,0,0],"split_type":[0,0,0,0,0,0,0,0,0,0,0,0,0,0,0,0,0,0,0,0,0,0,0,0,0,0,0,0,0,0,0,0,0,0,0,0,0,0,0],"sum_hessian":[4.690536E6,2.5918312E6,2.0987048E6,2.0380882E6,5.53743E5,2.0706859E6,2.8018975E4,1.6519152E5,1.8728968E6,2.7371738E5,2.8002562E5,2.070668E6,1.7791168E1,1.4962797E5,1.5563549E4,1.8693232E6,3.573471E3,3.0761966E2,2.7340978E5,2.7485025E5,5.1753633E3,2.832159E5,1.7874521E6,1.0344347E4,1.3928362E5,1.428758E3,1.4134791E4,1.5862714E6,2.830519E5,1.2622811E3,2.31119E3,2.7339172E5,1.805616E1,5.105875E3,6.948833E1,8.039722E1,2.831355E5,1.7874494E6,2.6909723E0],"tree_param":{"num_deleted":"0","num_feature":"12","num_nodes":"39","size_leaf_vector":"1"}},{"base_weights":[-6.943643E-5,-9.0680456E-1,1.1199545E0,-3.7630063E-1,-1.1293286E0,1.1507815E0,-1.153425E-1,-1.1335107E0,-5.8242436E-2,-9.7230023E-1,-1.1457496E0,-1.1231166E0,1.1525706E0,-1.1502997E0,-8.479969E-1,5.0919753E-1,-1.1453673E0,-1.1528237E-1,-6.477652E-1,-1.1526841E-1,-1.1165674E0,-6.3263917E-1,-1.1907738E0,-1.1616949E-1,1.1525819E0,-1.0868209E-1,-1.1531978E-1,1.0274004E-1,-1.1699927E-1,8.945768E-2,-1.1527667E-1,-1.149127E-1,-1.0952162E-1,7.644176E-2,-1.132216E-1,-4.301475E-2,-1.1387817E-1,-1.294361E-1,-4.4573616E-2,-1.1931433E-1,6.7775235E-2,7.233494E-2,1.1525895E-1],"categories":[],"categories_nodes":[],"categories_segments":[],"categories_sizes":[],"default_left":[0,0,0,0,0,0,0,0,0,0,0,0,0,0,0,0,0,0,0,0,0,0,0,0,0,0,0,0,0,0,0,0,0,0,0,0,0,0,0,0,0,0,0],"id":13,"left_children":[1,3,5,7,9,11,-1,13,15,17,19,21,23,25,27,29,31,-1,33,-1,35,37,39,-1,41,-1,-1,-1,-1,-1,-1,-1,-1,-1,-1,-1,-1,-1,-1,-1,-1,-1,-1],"loss_changes":[4.3774165E6,2.8119025E5,1.351445E5,1.6952153E5,4.326E3,7.741E3,0E0,9.9703125E2,3.057755E5,9.3071875E3,3.06125E2,4.889685E1,5.1E1,3.4921875E1,6.9860938E3,2.0859856E5,3.0796875E1,0E0,3.8852383E4,0E0,4.4478125E3,2.211824E1,6.624634E0,0E0,5.5E0,0E0,0E0,0E0,0E0,0E0,0E0,0E0,0E0,0E0,0E0,0E0,0E0,0E0,0E0,0E0,0E0,0E0,0E0],"parents":[2147483647,0,0,1,1,2,2,3,3,4,4,5,5,7,7,8,8,9,9,10,10,11,11,12,12,13,13,14,14,15,15,16,16,18,18,20,20,21,21,22,22,24,24],"right_children":[2,4,6,8,10,12,-1,14,16,18,20,22,24,26,28,30,32,-1,34,-1,36,38,40,-1,42,-1,-1,-1,-1,-1,-1,-1,-1,-1,-1,-1,-1,-1,-1,-1,-1,-1,-1],"split_conditions":[2.6883E4,1.1548566E0,2.8869E4,1E0,2.7705436E0,3.155646E-1,-1.153425E-1,3.2E1,2E0,1E0,1E0,3E0,1E0,8E0,3.3E1,1E0,7.219457E-1,-1.1528237E-1,2E0,-1.1526841E-1,4.8530025E0,3.6E1,1.990477E-1,-1.1616949E-1,6.491895E-1,-1.0868209E-1,-1.1531978E-1,1.0274004E-1,-1.1699927E-1,8.945768E-2,-1.1527667E-1,-1.149127E-1,-1.0952162E-1,7.644176E-2,-1.132216E-1,-4.301475E-2,-1.1387817E-1,-1.294361E-1,-4.4573616E-2,-1.1931433E-1,6.7775235E-2,7.233494E-2,1.1525895E-1],"split_indices":[3,2,3,5,2,2,0,7,5,5,5,10,10,8,7,6,2,0,5,0,2,8,2,0,2,0,0,0,0,0,0,0,0,0,0,0,0,0,0,0,0,0,0],"split_type":[0,0,0,0,0,0,0,0,0,0,0,0,0,0,0,0,0,0,0,0,0,0,0,0,0,0,0,0,0,0,0,0,0,0,0,0,0,0,0,0,0,0,0],"sum_hessian":[4.3103245E6,2.3819638E6,1.9283606E6,7.0388456E5,1.6780792E6,1.9025624E6,2.5798314E4,2.0820427E5,4.956803E5,1.5887486E5,1.5192044E6,1.4951929E3,1.9010671E6,1.9663839E5,1.1565881E4,3.25685E5,1.699953E5,1.0208643E5,5.678842E4,1.227484E6,2.9172034E5,1.825025E2,1.3126903E3,8.81013E0,1.9010584E6,8.602114E3,1.8803628E5,1.6944894E3,9.871392E3,2.6438044E5,6.1304562E4,1.5811928E5,1.18760205E4,1.4505127E4,4.2283293E4,9.145517E3,2.825748E5,3.8889748E1,1.4361275E2,1.3113889E3,1.3013952E0,3.523966E1,1.9010231E6],"tree_param":{"num_deleted":"0","num_feature":"12","num_nodes":"43","size_leaf_vector":"1"}},{"base_weights":[-1.3260555E-4,-8.8972455E-1,1.103804E0,-1.1332266E0,-4.804678E-3,1.1341723E0,-1.1367195E-1,-1.0261426E0,-1.1354641E0,1.1079354E0,-1.1374471E0,-1.0949055E-1,1.1359328E0,-1.1171488E0,-7.193642E-1,-1.1365952E0,-1.1291608E0,1.1411563E0,-1.14504054E-1,-1.1378945E0,-1.11425E0,1.1359487E0,-1.1951812E-1,-1.0387498E-1,-1.1379099E-1,1.2964913E-1,-1.1564672E-1,-1.1360897E-1,-1.1415612E-1,-1.13418676E-1,-1.0748392E-1,-1.1922401E-1,1.1415688E-1,-1.138108E-1,-1.1096314E-1,-1.01085044E-1,-1.1291899E-1,1.13596044E-1,-1.4118998E-1],"categories":[],"categories_nodes":[],"categories_segments":[],"categories_sizes":[],"default_left":[0,0,0,0,0,0,0,0,0,0,0,0,0,0,0,0,0,0,0,0,0,0,0,0,0,0,0,0,0,0,0,0,0,0,0,0,0,0,0],"id":14,"left_children":[1,3,5,7,9,11,-1,13,15,17,19,-1,21,23,25,27,29,31,-1,33,35,37,-1,-1,-1,-1,-1,-1,-1,-1,-1,-1,-1,-1,-1,-1,-1,-1,-1],"loss_changes":[3.893887E6,4.73126E5,1.2039075E5,4.1125E2,5.971585E5,6.8515E3,0E0,9.833828E2,1.075E1,1.7889781E4,1.15625E0,0E0,6.575E1,4.3070312E1,7.1103433E3,2.25E0,6.8875E1,2.280625E2,0E0,9.375E-2,5.7958984E0,5.425E1,0E0,0E0,0E0,0E0,0E0,0E0,0E0,0E0,0E0,0E0,0E0,0E0,0E0,0E0,0E0,0E0,0E0],"parents":[2147483647,0,0,1,1,2,2,3,3,4,4,5,5,7,7,8,8,9,9,10,10,12,12,13,13,14,14,15,15,16,16,17,17,19,19,20,20,21,21],"right_children":[2,4,6,8,10,12,-1,14,16,18,20,-1,22,24,26,28,30,32,-1,34,36,38,-1,-1,-1,-1,-1,-1,-1,-1,-1,-1,-1,-1,-1,-1,-1,-1,-1],"split_conditions":[2.6883E4,4.82E2,2.8869E4,3.3281785E-2,4.8697897E2,2.8728184E-1,-1.1367195E-1,3.2E1,2E0,1.982411E6,7.287516E2,-1.0949055E-1,8.028858E6,8E0,3.3E1,1E0,3.5732104E2,1E0,-1.14504054E-1,3E0,1.040563E0,4.7191757E2,-1.1951812E-1,-1.0387498E-1,-1.1379099E-1,1.2964913E-1,-1.1564672E-1,-1.1360897E-1,-1.1415612E-1,-1.13418676E-1,-1.0748392E-1,-1.1922401E-1,1.1415688E-1,-1.138108E-1,-1.1096314E-1,-1.01085044E-1,-1.1291899E-1,1.13596044E-1,-1.4118998E-1],"split_indices":[3,11,3,2,11,2,0,7,5,9,11,0,9,8,7,5,11,5,0,5,2,11,0,0,0,0,0,0,0,0,0,0,0,0,0,0,0,0,0],"split_type":[0,0,0,0,0,0,0,0,0,0,0,0,0,0,0,0,0,0,0,0,0,0,0,0,0,0,0,0,0,0,0,0,0,0,0,0,0,0,0],"sum_hessian":[3.9650452E6,2.195684E6,1.7693612E6,1.7218772E6,4.7380675E5,1.7457002E6,2.3660994E4,3.5250855E4,1.6866264E6,2.3900322E5,2.3480353E5,1.3771003E3,1.7443232E6,2.7184043E4,8.066813E3,1.4298678E6,2.5675869E5,2.3553073E5,3.4724873E3,2.3031317E5,4.490353E3,1.7443119E6,1.13352165E1,5.7022153E3,2.1481828E4,1.4371089E3,6.629704E3,1.2979568E6,1.3191105E5,2.3499627E5,2.1762426E4,4.111759E1,2.3548961E5,2.285478E5,1.765383E3,5.755593E2,3.914794E3,1.7443042E6,7.567711E0],"tree_param":{"num_deleted":"0","num_feature":"12","num_nodes":"39","size_leaf_vector":"1"}},{"base_weights":[-2.49066E-4,-8.7774587E-1,1.0896637E0,-1.118481E0,-3.9294492E-3,1.1195561E0,-1.1220236E-1,-1.0932406E0,-1.1207101E0,1.1238354E0,-1.1225001E0,1.1211245E0,1.0767771E0,-1.1170543E0,-8.671333E-1,-1.1208525E0,-1.0471652E0,1.1263877E0,-1.1489089E-1,-1.12304114E-1,-1.094066E0,1.1211588E0,-7.4480224E-1,-1.154927E-1,1.1214418E0,-1.05349615E-1,-1.1218411E-1,1.4214692E-1,-1.1302244E-1,-1.1211335E-1,-1.10661946E-1,-8.9748494E-2,-1.1290699E-1,1.1266073E-1,-1.0873107E-1,-1.1044458E-1,-3.8216516E-2,1.1211689E-1,-1.3067429E-1,-1.4805605E-1,7.103879E-2,1.1214592E-1,4.7589377E-2],"categories":[],"categories_nodes":[],"categories_segments":[],"categories_sizes":[],"default_left":[0,0,0,0,0,0,0,0,0,0,0,0,0,0,0,0,0,0,0,0,0,0,0,0,0,0,0,0,0,0,0,0,0,0,0,0,0,0,0,0,0,0,0],"id":15,"left_children":[1,3,5,7,9,11,-1,13,15,17,19,21,23,25,27,29,31,33,-1,-1,35,37,39,-1,41,-1,-1,-1,-1,-1,-1,-1,-1,-1,-1,-1,-1,-1,-1,-1,-1,-1,-1],"loss_changes":[3.4739618E6,4.2329612E5,1.07109375E5,8.75E1,5.4828706E5,1.06125E2,0E0,6.8859375E2,1.4E1,1.2566562E3,2.125E0,9.9375E1,5.638953E3,3.4078125E1,7.3515938E3,4.5E0,3.349463E1,1.0634375E2,0E0,0E0,2.9972168E1,3.9E1,3.205262E1,0E0,8.59375E-2,0E0,0E0,0E0,0E0,0E0,0E0,0E0,0E0,0E0,0E0,0E0,0E0,0E0,0E0,0E0,0E0,0E0,0E0],"parents":[2147483647,0,0,1,1,2,2,3,3,4,4,5,5,7,7,8,8,9,9,10,10,11,11,12,12,13,13,14,14,15,15,16,16,17,17,20,20,21,21,22,22,24,24],"right_children":[2,4,6,8,10,12,-1,14,16,18,20,22,24,26,28,30,32,34,-1,-1,36,38,40,-1,42,-1,-1,-1,-1,-1,-1,-1,-1,-1,-1,-1,-1,-1,-1,-1,-1,-1,-1],"split_conditions":[2.6883E4,4.82E2,2.8869E4,5.6985E0,3.4990903E2,3E0,-1.1220236E-1,3.2E1,7.863472E2,1.982411E6,7.287516E2,4.502689E6,9.7580734E1,8E0,3.3E1,3.4990903E2,3.6687115E2,4.8697897E2,-1.1489089E-1,-1.12304114E-1,7.863472E2,4.7191757E2,4.181447E2,-1.154927E-1,2.07582E6,-1.05349615E-1,-1.1218411E-1,1.4214692E-1,-1.1302244E-1,-1.1211335E-1,-1.10661946E-1,-8.9748494E-2,-1.1290699E-1,1.1266073E-1,-1.0873107E-1,-1.1044458E-1,-3.8216516E-2,1.1211689E-1,-1.3067429E-1,-1.4805605E-1,7.103879E-2,1.1214592E-1,4.7589377E-2],"split_indices":[3,11,3,4,4,10,0,7,4,9,11,9,4,8,7,4,11,11,0,0,4,11,11,0,9,0,0,0,0,0,0,0,0,0,0,0,0,0,0,0,0,0,0],"split_type":[0,0,0,0,0,0,0,0,0,0,0,0,0,0,0,0,0,0,0,0,0,0,0,0,0,0,0,0,0,0,0,0,0,0,0,0,0,0,0,0,0,0,0],"sum_hessian":[3.632348E6,2.0122616E6,1.6200864E6,1.5776274E6,4.3463428E5,1.5984825E6,2.1603994E4,1.2806234E5,1.449565E6,2.1642766E5,2.1820662E5,1.541925E6,5.65574E4,1.1585631E5,1.2206031E4,1.4467512E6,2.8137761E3,2.1618539E5,2.4226135E2,2.1409439E5,4.1122305E3,1.5418971E6,2.7954678E1,1.1092284E3,5.5448168E4,8.12977E3,1.0772654E5,1.2580428E3,1.0947988E4,1.4186634E6,2.8087914E4,9.9937854E2,1.8143975E3,2.1616444E5,2.0956142E1,4.0525908E3,5.9639683E1,1.5418912E6,5.8215704E0,1.8555435E1,9.399242E0,5.5445938E4,2.2324104E0],"tree_param":{"num_deleted":"0","num_feature":"12","num_nodes":"43","size_leaf_vector":"1"}},{"base_weights":[-2.0366691E-5,-8.6469704E-1,1.0756636E0,-1.1009021E0,-2.8051278E-1,-1.0988142E0,1.0885991E0,-9.701794E-1,-1.1034403E0,1.0713654E0,-1.0845598E0,-1.1029793E-1,4.8060635E-1,9.7270674E-1,1.1081957E0,-1.0771071E0,-6.8824077E-1,-1.1081952E0,-1.0711807E0,1.1024177E0,-1.1110746E-1,-9.920173E-1,-1.1055902E0,-1.0451807E-1,1.0543143E-1,-9.5015246E-1,1.1079775E0,1.1083761E0,-1.4862005E-1,-9.84572E-2,-1.1108823E-1,1.148591E-1,-1.124424E-1,-1.1088075E-1,-1.0934545E-1,-5.0725E-2,-1.1052155E-1,1.1107502E-1,-6.0985077E-2,-7.202815E-2,-1.1094128E-1,-1.1065795E-1,-1.0624595E-1,-1.0860646E-1,1.01037875E-1,1.1080066E-1,-8.02728E-2,1.1083865E-1,-1.01492E-1,6.1679136E-2,-1.1903334E-1],"categories":[],"categories_nodes":[],"categories_segments":[],"categories_sizes":[],"default_left":[0,0,0,0,0,0,0,0,0,0,0,0,0,0,0,0,0,0,0,0,0,0,0,0,0,0,0,0,0,0,0,0,0,0,0,0,0,0,0,0,0,0,0,0,0,0,0,0,0,0,0],"id":16,"left_children":[1,3,5,7,9,11,13,15,17,19,21,-1,23,25,27,29,31,33,35,37,-1,39,41,-1,-1,43,45,47,49,-1,-1,-1,-1,-1,-1,-1,-1,-1,-1,-1,-1,-1,-1,-1,-1,-1,-1,-1,-1,-1,-1],"loss_changes":[3.091518E6,2.5425762E5,4.1663375E4,4.34125E2,5.7666775E5,5.8155273E1,3.34275E3,7.529297E2,1.96375E2,1.3410109E4,6.46375E2,0E0,2.187928E1,5.5396406E4,2.85875E2,5.555078E1,5.5111426E3,9E0,3.1734062E3,2.784E3,0E0,1.9645977E3,1.0375E1,0E0,0E0,3.7310332E3,1.19375E1,2.9E1,1.455631E2,0E0,0E0,0E0,0E0,0E0,0E0,0E0,0E0,0E0,0E0,0E0,0E0,0E0,0E0,0E0,0E0,0E0,0E0,0E0,0E0,0E0,0E0],"parents":[2147483647,0,0,1,1,2,2,3,3,4,4,5,5,6,6,7,7,8,8,9,9,10,10,12,12,13,13,14,14,15,15,16,16,17,17,18,18,19,19,21,21,22,22,25,25,26,26,27,27,28,28],"right_children":[2,4,6,8,10,12,14,16,18,20,22,-1,24,26,28,30,32,34,36,38,-1,40,42,-1,-1,44,46,48,50,-1,-1,-1,-1,-1,-1,-1,-1,-1,-1,-1,-1,-1,-1,-1,-1,-1,-1,-1,-1,-1,-1],"split_conditions":[3.2E1,3.2056824E2,5.7116663E-1,3.3281785E-2,3.2554565E2,2.541134E2,1.9713371E2,3.2E1,2.8094305E2,1.982411E6,1.513642E6,-1.1029793E-1,3E0,4E1,2.306062E6,8E0,3.3E1,1.9713371E2,1.051583E6,3.9660416E0,-1.1110746E-1,3.4990903E2,7.863472E2,-1.0451807E-1,1.0543143E-1,1.8172644E2,4.4E1,3.6738943E2,1.5330064E0,-9.84572E-2,-1.1108823E-1,1.148591E-1,-1.124424E-1,-1.1088075E-1,-1.0934545E-1,-5.0725E-2,-1.1052155E-1,1.1107502E-1,-6.0985077E-2,-7.202815E-2,-1.1094128E-1,-1.1065795E-1,-1.0624595E-1,-1.0860646E-1,1.01037875E-1,1.1080066E-1,-8.02728E-2,1.1083865E-1,-1.01492E-1,6.1679136E-2,-1.1903334E-1],"split_indices":[8,4,2,2,4,4,4,7,4,9,9,0,10,8,9,8,7,4,9,2,0,4,4,0,0,4,8,4,2,0,0,0,0,0,0,0,0,0,0,0,0,0,0,0,0,0,0,0,0,0,0],"split_type":[0,0,0,0,0,0,0,0,0,0,0,0,0,0,0,0,0,0,0,0,0,0,0,0,0,0,0,0,0,0,0,0,0,0,0,0,0,0,0,0,0,0,0,0,0,0,0,0,0,0,0],"sum_hessian":[3.323786E6,1.842618E6,1.4811679E6,1.312094E6,5.3052394E5,8.758553E3,1.4724094E6,2.4998816E4,1.2870952E6,1.9785748E5,3.3266647E5,8.735816E3,2.2735863E1,2.1297055E5,1.2594389E6,1.8122775E4,6.8760415E3,1.1217258E6,1.6536945E5,1.9508228E5,2.7751965E3,6.160909E4,2.7105738E5,5.988236E0,1.6747627E1,1.3997117E4,1.9897342E5,1.2592581E6,1.8064026E2,4.854077E3,1.3268698E4,1.3191736E3,5.5568677E3,1.0769282E6,4.479746E4,9.413334E3,1.5595612E5,1.941379E5,9.443891E2,1.8588746E4,4.3020344E4,2.649547E5,6.102682E3,1.3090104E4,9.0701385E2,1.9897081E5,2.605125E0,1.2592525E6,5.7251763E0,1.0436484E2,7.627542E1],"tree_param":{"num_deleted":"0","num_feature":"12","num_nodes":"51","size_leaf_vector":"1"}},{"base_weights":[-1.1272138E-4,-8.581815E-1,1.0659944E0,-1.0937663E0,-2.8385115E-3,1.0952746E0,-1.0979759E-1,-9.798687E-1,-1.0961736E0,1.0993402E0,-1.0977334E0,-1.0088862E0,1.0970362E0,-1.071671E0,-6.7673194E-1,-1.0963593E0,-9.949564E-1,1.1009822E0,-1.0956233E-1,-1.098362E-1,-1.0647653E0,-4.041479E-1,-1.1219855E-1,1.0970556E0,-1.0975035E-1,-1.0255003E-1,-1.09737515E-1,1.0904207E-1,-1.1111537E-1,-1.0967129E-1,-1.0772927E-1,-1.1028772E-1,-5.8098692E-2,1.0986004E-1,1.2132342E-1,-1.0772433E-1,-2.6358727E-2,-6.200881E-2,-2.5387589E-2,1.09706186E-1,-1.4615534E-1],"categories":[],"categories_nodes":[],"categories_segments":[],"categories_sizes":[],"default_left":[0,0,0,0,0,0,0,0,0,0,0,0,0,0,0,0,0,0,0,0,0,0,0,0,0,0,0,0,0,0,0,0,0,0,0,0,0,0,0,0,0],"id":17,"left_children":[1,3,5,7,9,11,-1,13,15,17,19,21,23,25,27,29,31,33,-1,-1,35,37,-1,39,-1,-1,-1,-1,-1,-1,-1,-1,-1,-1,-1,-1,-1,-1,-1,-1,-1],"loss_changes":[2.780754E6,3.3937775E5,8.589125E4,3.61E2,4.3890847E5,4.959E3,0E0,7.601367E2,2.3E1,6.544375E2,2.625E0,7.6106445E1,5.75E1,2.3779297E1,4.882214E3,7.5E0,1.0561328E2,4.709375E1,0E0,0E0,3.4168457E1,5.6162395E0,0E0,2.3375E1,0E0,0E0,0E0,0E0,0E0,0E0,0E0,0E0,0E0,0E0,0E0,0E0,0E0,0E0,0E0,0E0,0E0],"parents":[2147483647,0,0,1,1,2,2,3,3,4,4,5,5,7,7,8,8,9,9,10,10,11,11,12,12,13,13,14,14,15,15,16,16,17,17,20,20,21,21,23,23],"right_children":[2,4,6,8,10,12,-1,14,16,18,20,22,24,26,28,30,32,34,-1,-1,36,38,-1,40,-1,-1,-1,-1,-1,-1,-1,-1,-1,-1,-1,-1,-1,-1,-1,-1,-1],"split_conditions":[2.6883E4,4.82E2,2.8869E4,3.3281785E-2,3.4990903E2,2.8728184E-1,-1.0979759E-1,3.2E1,7.863472E2,4.8697897E2,7.287516E2,3E0,3.6738943E2,1E0,3.3E1,3.4990903E2,1.6025814E0,2.9302895E0,-1.0956233E-1,-1.098362E-1,7.863472E2,1E0,-1.1219855E-1,4.7191757E2,-1.0975035E-1,-1.0255003E-1,-1.09737515E-1,1.0904207E-1,-1.1111537E-1,-1.0967129E-1,-1.0772927E-1,-1.1028772E-1,-5.8098692E-2,1.0986004E-1,1.2132342E-1,-1.0772433E-1,-2.6358727E-2,-6.200881E-2,-2.5387589E-2,1.09706186E-1,-1.4615534E-1],"split_indices":[3,11,3,2,4,2,0,7,4,11,11,10,4,1,7,4,2,2,0,0,4,6,0,11,0,0,0,0,0,0,0,0,0,0,0,0,0,0,0,0,0],"split_type":[0,0,0,0,0,0,0,0,0,0,0,0,0,0,0,0,0,0,0,0,0,0,0,0,0,0,0,0,0,0,0,0,0,0,0,0,0,0,0,0,0],"sum_hessian":[3.0397605E6,1.684207E6,1.3555535E6,1.3205038E6,3.637032E5,1.3374571E6,1.8096365E4,2.7339994E4,1.2931638E6,1.812487E5,1.8245448E5,1.1183723E3,1.3363388E6,2.0982953E4,6.3570415E3,1.2907865E6,2.377329E3,1.8111372E5,1.3498645E2,1.7900923E5,3.4452373E3,1.769262E2,9.414461E2,1.3363276E6,1.1205626E1,7.51862E3,1.3464333E4,1.254094E3,5.1029473E3,1.2672331E6,2.355338E4,1.8844052E3,4.929239E2,1.773612E5,3.7525166E3,3.3920627E3,5.3174503E1,7.131722E1,1.0560897E2,1.3363249E6,2.7322478E0],"tree_param":{"num_deleted":"0","num_feature":"12","num_nodes":"41","size_leaf_vector":"1"}},{"base_weights":[-1.7735227E-4,-8.495281E-1,1.0560873E0,-1.0834422E0,-1.8257035E-3,1.0851474E0,-1.0877967E-1,-9.675384E-1,-1.0858977E0,1.0885222E0,-1.0874032E0,-9.865399E-1,1.0869125E0,-1.0597528E0,-6.651105E-1,-1.0860937E0,-9.7997844E-1,1.0913082E0,-1.1234218E-1,-1.0880418E-1,-1.0541002E0,-3.971796E-1,-1.10881664E-1,1.086942E0,-5.440931E-1,-1.0154923E-1,-1.0870474E-1,1.0395451E-1,-1.0994215E-1,-1.0864446E-1,-1.0671791E-1,-1.0920066E-1,-5.7020504E-2,1.0915493E-1,-1.0483386E-1,-1.0675788E-1,-2.5281707E-2,-3.738848E-2,-9.43132E-2,1.0869545E-1,-1.254234E-1,-3.3495316E-1,-5.407128E-3],"categories":[],"categories_nodes":[],"categories_segments":[],"categories_sizes":[],"default_left":[0,0,0,0,0,0,0,0,0,0,0,0,0,0,0,0,0,0,0,0,0,0,0,0,0,0,0,0,0,0,0,0,0,0,0,0,0,0,0,0,0,0,0],"id":18,"left_children":[1,3,5,7,9,11,-1,13,15,17,19,21,23,25,27,29,31,33,-1,-1,35,37,-1,39,41,-1,-1,-1,-1,-1,-1,-1,-1,-1,-1,-1,-1,-1,-1,-1,-1,-1,-1],"loss_changes":[2.4899912E6,3.0505312E5,7.7072E4,3.42E2,3.9381053E5,4.464E3,0E0,6.971172E2,2.35E1,1.0241406E3,2.375E0,7.4471985E1,5.9375E1,2.2060547E1,4.331825E3,6.75E0,9.999072E1,8.6625E1,0E0,0E0,3.395288E1,1.9387684E0,0E0,3.725E1,3.1001495E1,0E0,0E0,0E0,0E0,0E0,0E0,0E0,0E0,0E0,0E0,0E0,0E0,0E0,0E0,0E0,0E0,0E0,0E0],"parents":[2147483647,0,0,1,1,2,2,3,3,4,4,5,5,7,7,8,8,9,9,10,10,11,11,12,12,13,13,14,14,15,15,16,16,17,17,20,20,21,21,23,23,24,24],"right_children":[2,4,6,8,10,12,-1,14,16,18,20,22,24,26,28,30,32,34,-1,-1,36,38,-1,40,42,-1,-1,-1,-1,-1,-1,-1,-1,-1,-1,-1,-1,-1,-1,-1,-1,-1,-1],"split_conditions":[2.6883E4,4.82E2,2.8869E4,3.3281785E-2,3.4990903E2,2.8728184E-1,-1.0877967E-1,3.2E1,7.863472E2,1.982411E6,7.287516E2,3E0,4.502689E6,2.5E2,3.3E1,3.4990903E2,1.6025814E0,4.8697897E2,-1.1234218E-1,-1.0880418E-1,7.863472E2,5.6985E0,-1.10881664E-1,4.7191757E2,5.998922E6,-1.0154923E-1,-1.0870474E-1,1.0395451E-1,-1.0994215E-1,-1.0864446E-1,-1.0671791E-1,-1.0920066E-1,-5.7020504E-2,1.0915493E-1,-1.0483386E-1,-1.0675788E-1,-2.5281707E-2,-3.738848E-2,-9.43132E-2,1.0869545E-1,-1.254234E-1,-3.3495316E-1,-5.407128E-3],"split_indices":[3,11,3,2,4,2,0,7,4,9,11,10,9,3,7,4,2,11,0,0,4,4,0,11,9,0,0,0,0,0,0,0,0,0,0,0,0,0,0,0,0,0,0],"split_type":[0,0,0,0,0,0,0,0,0,0,0,0,0,0,0,0,0,0,0,0,0,0,0,0,0,0,0,0,0,0,0,0,0,0,0,0,0,0,0,0,0,0,0],"sum_hessian":[2.7754775E6,1.5384211E6,1.2370565E6,1.2057166E6,3.3270453E5,1.220513E6,1.6543484E4,2.5021145E4,1.1806955E6,1.6598756E5,1.6671697E5,1.0385096E3,1.2194745E6,1.9172643E4,5.8485015E3,1.1785048E6,2.190721E3,1.6577927E5,2.0829756E2,1.6354925E5,3.167718E3,1.791714E2,8.593382E2,1.2194528E6,2.1682783E1,7.327939E3,1.1844704E4,1.1872385E3,4.661263E3,1.1569835E6,2.1521168E4,1.7190768E3,4.716442E2,1.657611E5,1.8184195E1,3.1149875E3,5.273051E1,1.7345522E2,5.716186E0,1.2194468E6,6.0045466E0,2.3564315E0,1.9326351E1],"tree_param":{"num_deleted":"0","num_feature":"12","num_nodes":"43","size_leaf_vector":"1"}},{"base_weights":[-1.5053735E-4,-8.4240633E-1,1.0473155E0,-1.0740815E0,-2.2985055E-3,1.0761498E0,-1.0787401E-1,-1.0447764E0,-1.0766759E0,1.0790747E0,-1.0781702E0,1.07619E0,-6.137796E-1,-1.0712422E0,-7.989004E-1,-1.0769058E0,-9.610887E-1,1.0818486E0,-1.10988736E-1,-1.078816E0,-1.0445238E0,1.0777111E0,1.0347562E0,-1.4436994E0,6.089108E-1,-9.822394E-2,-1.0780954E-1,1.2526084E-1,-1.0834344E-1,-1.07857816E-1,-1.0675466E-1,-7.39105E-2,-1.084875E-1,-1.12340294E-1,1.0820788E-1,-1.0791977E-1,-1.0286307E-1,-1.0559174E-1,-4.0660743E-2,1.0777239E-1,-1.2036393E-1,-1.0987588E-1,1.07811235E-1,-2.4291134E-1,-1.09178536E-1,9.935528E-2,-1.3837455E-1],"categories":[],"categories_nodes":[],"categories_segments":[],"categories_sizes":[],"default_left":[0,0,0,0,0,0,0,0,0,0,0,0,0,0,0,0,0,0,0,0,0,0,0,0,0,0,0,0,0,0,0,0,0,0,0,0,0,0,0,0,0,0,0,0,0,0,0],"id":19,"left_children":[1,3,5,7,9,11,-1,13,15,17,19,21,23,25,27,29,31,33,-1,35,37,39,41,43,45,-1,-1,-1,-1,-1,-1,-1,-1,-1,-1,-1,-1,-1,-1,-1,-1,-1,-1,-1,-1,-1,-1],"loss_changes":[2.2334565E6,2.7311788E5,6.9172375E4,8.25E1,3.5289644E5,7.5875E1,0E0,5.8146875E2,2.6E1,9.1971875E2,2.171875E0,6.9125E1,2.8318226E1,4.821875E1,5.079921E3,1.45E1,5.458496E1,7.790625E1,0E0,1.75E0,2.061206E1,3.225E1,3.650246E3,3.0365715E0,1.0293768E1,0E0,0E0,0E0,0E0,0E0,0E0,0E0,0E0,0E0,0E0,0E0,0E0,0E0,0E0,0E0,0E0,0E0,0E0,0E0,0E0,0E0,0E0],"parents":[2147483647,0,0,1,1,2,2,3,3,4,4,5,5,7,7,8,8,9,9,10,10,11,11,12,12,13,13,14,14,15,15,16,16,17,17,19,19,20,20,21,21,22,22,23,23,24,24],"right_children":[2,4,6,8,10,12,-1,14,16,18,20,22,24,26,28,30,32,34,-1,36,38,40,42,44,46,-1,-1,-1,-1,-1,-1,-1,-1,-1,-1,-1,-1,-1,-1,-1,-1,-1,-1,-1,-1,-1,-1],"split_conditions":[2.6883E4,4.82E2,2.8869E4,5.6985E0,3.4990903E2,4.502689E6,-1.0787401E-1,3.2E1,7.863472E2,1.982411E6,7.287516E2,3E0,4.181447E2,8E0,3.3E1,2E0,3.6687115E2,1E0,-1.10988736E-1,3E0,7.863472E2,4.7191757E2,5.6985E0,9.734847E6,2.7422824E2,-9.822394E-2,-1.0780954E-1,1.2526084E-1,-1.0834344E-1,-1.07857816E-1,-1.0675466E-1,-7.39105E-2,-1.084875E-1,-1.12340294E-1,1.0820788E-1,-1.0791977E-1,-1.0286307E-1,-1.0559174E-1,-4.0660743E-2,1.0777239E-1,-1.2036393E-1,-1.0987588E-1,1.07811235E-1,-2.4291134E-1,-1.09178536E-1,9.935528E-2,-1.3837455E-1],"split_indices":[3,11,3,4,4,9,0,7,4,9,11,10,11,8,7,5,11,5,0,5,4,11,4,9,4,0,0,0,0,0,0,0,0,0,0,0,0,0,0,0,0,0,0,0,0,0,0],"split_type":[0,0,0,0,0,0,0,0,0,0,0,0,0,0,0,0,0,0,0,0,0,0,0,0,0,0,0,0,0,0,0,0,0,0,0,0,0,0,0,0,0,0,0,0,0,0,0],"sum_hessian":[2.531589E6,1.4032508E6,1.1283382E6,1.0999258E6,3.0332503E5,1.1132405E6,1.5097698E4,8.94872E4,1.0104385E6,1.5127573E5,1.520493E5,1.1132145E6,2.6040693E1,8.078792E4,8.699284E3,1.0084239E6,2.0146332E3,1.510848E5,1.9094585E2,1.4915534E5,2.8939626E3,1.0737666E6,3.944782E4,1.5404141E1,1.0636553E1,5.786195E3,7.500173E4,1.059173E3,7.6401113E3,8.554555E5,1.5296842E5,7.237375E2,1.2908956E3,1.5262179E1,1.5106953E5,1.4800942E5,1.1459254E3,2.842538E3,5.1424446E1,1.0737612E6,5.4378576E0,7.8518787E2,3.866263E4,2.5003102E0,1.29038315E1,9.335849E0,1.3007042E0],"tree_param":{"num_deleted":"0","num_feature":"12","num_nodes":"47","size_leaf_vector":"1"}},{"base_weights":[2.0652568E-4,-8.3578396E-1,1.0395449E0,-3.4368625E-1,-1.0452218E0,1.0680877E0,-1.0706786E-1,8.167696E-1,-1.068886E0,-8.9283645E-1,-1.0612326E0,-9.708447E-1,1.0698967E0,-9.257069E-1,1.0703223E0,-7.552655E-1,-1.0717554E0,4.548228E-1,-1.0589268E0,-1.07019186E-1,-1.0239438E0,-5.052416E-1,-1.086784E-1,1.0699283E0,-4.9133688E-1,-1.03319585E-1,-5.9537508E-2,1.0735388E-1,-1.0701801E-1,-1.07195236E-1,6.561141E-2,-1.07141435E-1,-1.129429E-1,-1.0710082E-1,1.0113255E-1,-1.06885724E-1,-6.919878E-2,-3.0667773E-2,-1.0502602E-1,-4.8576392E-2,-9.887221E-2,-9.399273E-2,1.0699316E-1,3.9714262E-2,-1.7493902E-1],"categories":[],"categories_nodes":[],"categories_segments":[],"categories_sizes":[],"default_left":[0,0,0,0,0,0,0,0,0,0,0,0,0,0,0,0,0,0,0,0,0,0,0,0,0,0,0,0,0,0,0,0,0,0,0,0,0,0,0,0,0,0,0,0,0],"id":20,"left_children":[1,3,5,7,9,11,-1,13,15,17,19,21,23,25,27,29,31,33,35,-1,37,39,-1,41,43,-1,-1,-1,-1,-1,-1,-1,-1,-1,-1,-1,-1,-1,-1,-1,-1,-1,-1,-1,-1],"loss_changes":[2.0051976E6,1.3182075E5,6.1966125E4,3.2134603E5,2.1879375E3,3.744875E3,0E0,6.4882E4,2.10625E2,1.9095305E4,2.70125E2,4.8049988E1,5.0625E1,6.6176953E2,8.8378125E2,9.545021E2,3.375E0,7.9496255E3,2.759922E2,0E0,2.968875E3,1.2275467E0,0E0,7.875E0,2.4443865E1,0E0,0E0,0E0,0E0,0E0,0E0,0E0,0E0,0E0,0E0,0E0,0E0,0E0,0E0,0E0,0E0,0E0,0E0,0E0,0E0],"parents":[2147483647,0,0,1,1,2,2,3,3,4,4,5,5,7,7,8,8,9,9,10,10,11,11,12,12,13,13,14,14,15,15,16,16,17,17,18,18,20,20,21,21,23,23,24,24],"right_children":[2,4,6,8,10,12,-1,14,16,18,20,22,24,26,28,30,32,34,36,-1,38,40,-1,42,44,-1,-1,-1,-1,-1,-1,-1,-1,-1,-1,-1,-1,-1,-1,-1,-1,-1,-1,-1,-1],"split_conditions":[2.6883E4,1.1548566E0,2.8869E4,1.982411E6,2.7705436E0,3.155646E-1,-1.0706786E-1,1E0,5.057493E6,1.920455E6,1E0,3E0,4.184821E6,3.2E1,4E0,4.998155E6,3.2E1,1E0,4.5660416E7,-1.07019186E-1,4.8530025E0,1E0,-1.086784E-1,1E0,8.007205E-1,-1.03319585E-1,-5.9537508E-2,1.0735388E-1,-1.0701801E-1,-1.07195236E-1,6.561141E-2,-1.07141435E-1,-1.129429E-1,-1.0710082E-1,1.0113255E-1,-1.06885724E-1,-6.919878E-2,-3.0667773E-2,-1.0502602E-1,-4.8576392E-2,-9.887221E-2,-9.399273E-2,1.0699316E-1,3.9714262E-2,-1.7493902E-1],"split_indices":[3,2,3,9,2,2,0,5,9,9,5,10,9,7,5,9,7,5,9,0,2,9,0,10,2,0,0,0,0,0,0,0,0,0,0,0,0,0,0,0,0,0,0,0,0],"split_type":[0,0,0,0,0,0,0,0,0,0,0,0,0,0,0,0,0,0,0,0,0,0,0,0,0,0,0,0,0,0,0,0,0,0,0,0,0,0,0,0,0,0,0,0,0],"sum_hessian":[2.3078015E6,1.279022E6,1.0287795E6,3.818426E5,8.9717944E5,1.0150505E6,1.3729009E4,1.4685188E5,2.3499072E5,8.53072E4,8.1187225E5,8.9928796E2,1.0141512E6,1.8654043E4,1.28197836E5,2.132943E3,2.3285778E5,9.359818E3,7.594738E4,6.5457175E5,1.5730053E5,1.8035484E2,7.189331E2,1.01413094E6,2.024716E1,1.4072703E4,4.5813403E3,1.28005984E5,1.918524E2,1.7422545E3,3.9068845E2,2.3150814E5,1.3496401E3,2.50116E3,6.858658E3,7.394434E4,2.0030398E3,5.567535E3,1.51733E5,1.7529747E2,5.057378E0,1.2150533E0,1.01412975E6,1.2267652E1,7.9795084E0],"tree_param":{"num_deleted":"0","num_feature":"12","num_nodes":"45","size_leaf_vector":"1"}},{"base_weights":[1.7217574E-4,-8.292676E-1,1.0326182E0,-1.0581244E0,-6.48042E-4,1.0609704E0,-1.0635078E-1,-9.203015E-1,-1.061116E0,1.0353823E0,-1.0628936E0,-9.2145026E-1,1.0627604E0,-1.0233917E0,-6.0384536E-1,-1.0633427E-1,-1.0487716E0,1.0663832E0,-1.0682024E-1,-1.0636355E0,-1.0250798E0,-9.2340195E-1,2.9295428E-2,1.0627944E0,-5.407951E-1,-8.767396E-2,-1.064254E-1,9.699603E-2,-1.07481755E-1,-1.0584533E-1,-9.472453E-2,1.0667999E-1,-1.23033896E-1,-1.0640203E-1,-1.0130638E-1,-8.025076E-2,-1.0585109E-1,-1.19828515E-1,-9.1040045E-2,1.06280856E-1,-1.17467575E-1,2.6877398E-2,-1.687574E-1],"categories":[],"categories_nodes":[],"categories_segments":[],"categories_sizes":[],"default_left":[0,0,0,0,0,0,0,0,0,0,0,0,0,0,0,0,0,0,0,0,0,0,0,0,0,0,0,0,0,0,0,0,0,0,0,0,0,0,0,0,0,0,0],"id":21,"left_children":[1,3,5,7,9,11,-1,13,15,17,19,21,23,25,27,-1,29,31,-1,33,35,37,-1,39,41,-1,-1,-1,-1,-1,-1,-1,-1,-1,-1,-1,-1,-1,-1,-1,-1,-1,-1],"loss_changes":[1.8002842E6,2.2106606E5,5.5659E4,3.7575E2,2.7764975E5,3.27975E3,0E0,6.327324E2,2.34375E1,8.3301875E3,2.40625E0,2.2473755E0,5.1125E1,8.681055E1,3.538723E3,0E0,1.3335938E2,1.2178125E2,0E0,1.296875E0,1.7190186E1,1.8859863E0,0E0,3.03125E1,1.9322338E1,0E0,0E0,0E0,0E0,0E0,0E0,0E0,0E0,0E0,0E0,0E0,0E0,0E0,0E0,0E0,0E0,0E0,0E0],"parents":[2147483647,0,0,1,1,2,2,3,3,4,4,5,5,7,7,8,8,9,9,10,10,11,11,12,12,13,13,14,14,16,16,17,17,19,19,20,20,21,21,23,23,24,24],"right_children":[2,4,6,8,10,12,-1,14,16,18,20,22,24,26,28,-1,30,32,-1,34,36,38,-1,40,42,-1,-1,-1,-1,-1,-1,-1,-1,-1,-1,-1,-1,-1,-1,-1,-1,-1,-1],"split_conditions":[2.6883E4,4.82E2,2.8869E4,3.3281785E-2,4.8697897E2,3.155646E-1,-1.0635078E-1,3.2E1,2E0,1.982411E6,7.287516E2,3.371006E2,4.502689E6,8E0,3.3E1,-1.0633427E-1,3.5732104E2,2E0,-1.0682024E-1,3E0,1.040563E0,3.6E1,2.9295428E-2,4.7191757E2,8.007205E-1,-8.767396E-2,-1.064254E-1,9.699603E-2,-1.07481755E-1,-1.0584533E-1,-9.472453E-2,1.0667999E-1,-1.23033896E-1,-1.0640203E-1,-1.0130638E-1,-8.025076E-2,-1.0585109E-1,-1.19828515E-1,-9.1040045E-2,1.06280856E-1,-1.17467575E-1,2.6877398E-2,-1.687574E-1],"split_indices":[3,11,3,2,11,2,0,7,5,9,11,11,9,8,7,0,11,5,0,5,2,8,0,11,2,0,0,0,0,0,0,0,0,0,0,0,0,0,0,0,0,0,0],"split_type":[0,0,0,0,0,0,0,0,0,0,0,0,0,0,0,0,0,0,0,0,0,0,0,0,0,0,0,0,0,0,0,0,0,0,0,0,0,0,0,0,0,0,0],"sum_hessian":[2.10227E6,1.165743E6,9.3652694E5,9.134552E5,2.5228788E5,9.24029E5,1.2497972E4,1.9412893E4,8.9404225E5,1.2771996E5,1.24567914E5,8.3307544E2,9.231959E5,1.4641104E4,4.7717886E3,7.5734725E5,1.3669503E5,1.2586555E5,1.8544099E3,1.2214449E5,2.4234272E3,8.3197797E2,1.097459E0,9.2317656E5,1.932403E1,3.195414E3,1.1445689E4,1.0988385E3,3.67295E3,1.2478594E5,1.1909101E4,1.2584325E5,2.2294363E1,1.2120234E5,9.4215015E2,3.197364E2,2.103691E3,3.3456856E1,7.985211E2,9.231713E5,5.2835436E0,1.1776226E1,7.547805E0],"tree_param":{"num_deleted":"0","num_feature":"12","num_nodes":"43","size_leaf_vector":"1"}},{"base_weights":[-4.6329904E-5,-8.239346E-1,1.0263436E0,-1.0514092E0,-2.760695E-4,1.0545648E0,-1.05707265E-1,-9.105111E-1,-1.05448E0,1.0574508E0,-1.0557812E0,-8.901642E-1,1.0563586E0,-1.0129981E0,-5.9698653E-1,-1.054761E0,-9.073222E-1,1.060122E0,-1.07575856E-1,-1.0569181E0,-9.975804E-1,-2.7327767E-1,-1.0676111E-1,1.0563843E0,-1.1191273E-1,-9.3636446E-2,-1.0569701E-1,9.246294E-2,-1.06713824E-1,-1.0569467E-1,-1.0426202E-1,-1.06021784E-1,-3.8910847E-2,-1.0996149E-1,1.0603564E-1,-1.0574149E-1,-9.918907E-2,-1.0211145E-1,1.4095773E-2,-2.4661617E-2,-1.0398471E-1,1.0564317E-1,3.9502468E-2],"categories":[],"categories_nodes":[],"categories_segments":[],"categories_sizes":[],"default_left":[0,0,0,0,0,0,0,0,0,0,0,0,0,0,0,0,0,0,0,0,0,0,0,0,0,0,0,0,0,0,0,0,0,0,0,0,0,0,0,0,0,0,0],"id":22,"left_children":[1,3,5,7,9,11,-1,13,15,17,19,21,23,25,27,29,31,33,-1,35,37,39,-1,41,-1,-1,-1,-1,-1,-1,-1,-1,-1,-1,-1,-1,-1,-1,-1,-1,-1,-1,-1],"loss_changes":[1.6183982E6,1.9891169E5,5.0106938E4,3.589375E2,2.5650336E5,2.9339375E3,0E0,5.697715E2,3.26875E1,6.550625E2,6.5546875E0,8.457849E1,4.8375E1,4.408496E1,3.1311687E3,2.05E1,1.23114624E2,5.9164062E1,0E0,2.5859375E0,5.965332E1,3.3108654E0,0E0,2.5875E1,0E0,0E0,0E0,0E0,0E0,0E0,0E0,0E0,0E0,0E0,0E0,0E0,0E0,0E0,0E0,0E0,0E0,0E0,0E0],"parents":[2147483647,0,0,1,1,2,2,3,3,4,4,5,5,7,7,8,8,9,9,10,10,11,11,12,12,13,13,14,14,15,15,16,16,17,17,19,19,20,20,21,21,23,23],"right_children":[2,4,6,8,10,12,-1,14,16,18,20,22,24,26,28,30,32,34,-1,36,38,40,-1,42,-1,-1,-1,-1,-1,-1,-1,-1,-1,-1,-1,-1,-1,-1,-1,-1,-1,-1,-1],"split_conditions":[2.6883E4,4.82E2,2.8869E4,3.3281785E-2,3.4990903E2,3.155646E-1,-1.05707265E-1,3.2E1,7.863472E2,1.982411E6,7.287516E2,3E0,3.6738943E2,1E0,3.3E1,2E0,1.6025814E0,1E0,-1.07575856E-1,3E0,7.863472E2,5.6985E0,-1.0676111E-1,2.306062E6,-1.1191273E-1,-9.3636446E-2,-1.0569701E-1,9.246294E-2,-1.06713824E-1,-1.0569467E-1,-1.0426202E-1,-1.06021784E-1,-3.8910847E-2,-1.0996149E-1,1.0603564E-1,-1.0574149E-1,-9.918907E-2,-1.0211145E-1,1.4095773E-2,-2.4661617E-2,-1.0398471E-1,1.0564317E-1,3.9502468E-2],"split_indices":[3,11,3,2,4,2,0,7,4,9,11,10,4,1,7,5,2,5,0,5,4,4,0,9,0,0,0,0,0,0,0,0,0,0,0,0,0,0,0,0,0,0,0],"split_type":[0,0,0,0,0,0,0,0,0,0,0,0,0,0,0,0,0,0,0,0,0,0,0,0,0,0,0,0,0,0,0,0,0,0,0,0,0,0,0,0,0,0,0],"sum_hessian":[1.913834E6,1.0616459E6,8.521882E5,8.3189594E5,2.2974992E5,8.407995E5,1.13886875E4,1.7749928E4,8.14146E5,1.1475419E5,1.1499573E5,7.74322E2,8.400251E5,1.3375439E4,4.3744883E3,8.1258794E5,1.5580444E3,1.1461117E5,1.4301733E2,1.12775766E5,2.2199597E3,1.7354395E2,6.007781E2,8.400157E5,9.465402E0,4.88472E3,8.49072E3,1.0323588E3,3.3421296E3,6.8854956E5,1.24038375E5,1.2022751E3,3.557693E2,1.1924095E1,1.1459925E5,1.1190546E5,8.703085E2,2.1751025E3,4.4857094E1,1.689882E2,4.5557394E0,8.3995506E5,6.0609367E1],"tree_param":{"num_deleted":"0","num_feature":"12","num_nodes":"43","size_leaf_vector":"1"}},{"base_weights":[3.1685064E-4,-8.19105E-1,1.0207921E0,-1.0457326E0,-2.5055587E-1,1.04881E0,-1.0513319E-1,-1.0093927E0,-1.0493214E0,1.0141408E0,-1.0145837E0,1.0488532E0,-5.0065744E-1,-1.039721E0,-7.381006E-1,-1.0513031E-1,-1.0398992E0,1.0432547E0,-1.0518404E-1,-8.9645547E-1,-1.042951E0,1.0503706E0,1.007396E0,-2.2932582E-1,-1.7422621E-1,-9.015875E-2,-1.0507037E-1,1.1865242E-1,-1.0556638E-1,-9.6163005E-2,-1.0449072E-1,1.04420125E-1,-1.03873365E-1,-5.716282E-2,-1.0506175E-1,-1.0455745E-1,-9.3265794E-2,1.0503832E-1,-1.0246163E-1,-1.0658985E-1,1.0509256E-1,7.942783E-2,-1.05975345E-1],"categories":[],"categories_nodes":[],"categories_segments":[],"categories_sizes":[],"default_left":[0,0,0,0,0,0,0,0,0,0,0,0,0,0,0,0,0,0,0,0,0,0,0,0,0,0,0,0,0,0,0,0,0,0,0,0,0,0,0,0,0,0,0],"id":23,"left_children":[1,3,5,7,9,11,-1,13,15,17,19,21,23,25,27,-1,29,31,-1,33,35,37,39,-1,41,-1,-1,-1,-1,-1,-1,-1,-1,-1,-1,-1,-1,-1,-1,-1,-1,-1,-1],"loss_changes":[1.4558671E6,1.2442306E5,4.5018062E4,8.89375E1,2.6593112E5,5.175E1,0E0,5.1003516E2,1.06875E1,6.235375E3,5.739844E2,4.70625E1,1.2471451E1,8.375781E1,3.818686E3,0E0,4.1828125E1,2.0250781E2,0E0,1.6634004E3,3.9078125E1,2.0375E1,2.441168E3,0E0,1.7728191E1,0E0,0E0,0E0,0E0,0E0,0E0,0E0,0E0,0E0,0E0,0E0,0E0,0E0,0E0,0E0,0E0,0E0,0E0],"parents":[2147483647,0,0,1,1,2,2,3,3,4,4,5,5,7,7,8,8,9,9,10,10,11,11,12,12,13,13,14,14,16,16,17,17,19,19,20,20,21,21,22,22,24,24],"right_children":[2,4,6,8,10,12,-1,14,16,18,20,22,24,26,28,-1,30,32,-1,34,36,38,40,-1,42,-1,-1,-1,-1,-1,-1,-1,-1,-1,-1,-1,-1,-1,-1,-1,-1,-1,-1],"split_conditions":[2.6883E4,3.2056824E2,2.8869E4,5.6985E0,3.2554565E2,4.502689E6,-1.0513319E-1,3.2E1,1.8172644E2,1.982411E6,1.513642E6,3E0,5.76261E6,8E0,3.3E1,-1.0513031E-1,2.2502676E2,1E0,-1.0518404E-1,3.4990903E2,7.863472E2,3.6738943E2,5.6985E0,-2.2932582E-1,8.028858E6,-9.015875E-2,-1.0507037E-1,1.1865242E-1,-1.0556638E-1,-9.6163005E-2,-1.0449072E-1,1.04420125E-1,-1.03873365E-1,-5.716282E-2,-1.0506175E-1,-1.0455745E-1,-9.3265794E-2,1.0503832E-1,-1.0246163E-1,-1.0658985E-1,1.0509256E-1,7.942783E-2,-1.05975345E-1],"split_indices":[3,4,3,4,4,9,0,7,4,9,9,10,9,8,7,0,4,6,0,4,4,4,4,0,9,0,0,0,0,0,0,0,0,0,0,0,0,0,0,0,0,0,0],"split_type":[0,0,0,0,0,0,0,0,0,0,0,0,0,0,0,0,0,0,0,0,0,0,0,0,0,0,0,0,0,0,0,0,0,0,0,0,0,0,0,0,0,0,0],"sum_hessian":[1.7410498E6,9.65651E5,7.7539875E5,6.9043706E5,2.7521388E5,7.650547E5,1.0344061E4,6.2081453E4,6.283556E5,1.03646805E5,1.715671E5,7.650337E5,2.0995659E1,5.583655E4,6.244903E3,5.1907922E5,1.0927639E5,1.0220699E5,1.4398093E3,3.322845E4,1.3833864E5,7.3799806E5,2.7035635E4,2.306153E0,1.8689507E1,4.118589E3,5.1717965E4,8.84084E2,5.360819E3,6.5831157E3,1.0269327E5,1.0216105E5,4.5945744E1,1.0696042E4,2.2532406E4,1.351163E5,3.2223367E3,7.3799406E5,3.9937625E0,5.554681E2,2.6480166E4,8.975744E0,9.713761E0],"tree_param":{"num_deleted":"0","num_feature":"12","num_nodes":"43","size_leaf_vector":"1"}},{"base_weights":[3.674948E-4,-8.141569E-1,1.0156933E0,-1.0399952E0,2.0753255E-3,1.0436257E0,-1.0462128E-1,-8.949735E-1,-1.0431868E0,1.0183688E0,-1.0444734E0,-8.620958E-1,1.045536E0,-9.9457437E-1,-5.919086E-1,-1.0461833E-1,-1.026614E0,1.0489947E0,-1.0494689E-1,-1.045684E0,-9.833898E-1,-4.0636072E-1,-1.0241545E0,1.0456023E0,2.7589467E-1,-8.143627E-2,-1.0468691E-1,8.4119454E-2,-1.0541799E-1,-1.0399634E-1,-8.886746E-2,-1.07745245E-1,1.04946375E-1,-1.0462903E-1,-9.672212E-2,-6.7233555E-2,-1.0315784E-1,-1.338049E-1,-2.1582728E-2,-1.056603E-1,9.358612E-2,1.0456113E-1,-9.278449E-2,-2.4883202E-1,7.993137E-2],"categories":[],"categories_nodes":[],"categories_segments":[],"categories_sizes":[],"default_left":[0,0,0,0,0,0,0,0,0,0,0,0,0,0,0,0,0,0,0,0,0,0,0,0,0,0,0,0,0,0,0,0,0,0,0,0,0,0,0,0,0,0,0,0,0],"id":24,"left_children":[1,3,5,7,9,11,-1,13,15,17,19,21,23,25,27,-1,29,31,-1,33,35,37,39,41,43,-1,-1,-1,-1,-1,-1,-1,-1,-1,-1,-1,-1,-1,-1,-1,-1,-1,-1,-1,-1],"loss_changes":[1.3099398E6,1.620105E5,4.0608812E4,3.17625E2,2.0258878E5,2.5334375E3,0E0,4.4708887E2,3.24375E1,6.120883E3,5.8984375E0,5.1075134E1,3.5125E1,1.043291E2,2.432823E3,0E0,1.8910938E2,9.609375E1,0E0,3.3828125E0,2.6892334E1,3.2470818E1,3.3656128E1,1.3125E1,9.047855E1,0E0,0E0,0E0,0E0,0E0,0E0,0E0,0E0,0E0,0E0,0E0,0E0,0E0,0E0,0E0,0E0,0E0,0E0,0E0,0E0],"parents":[2147483647,0,0,1,1,2,2,3,3,4,4,5,5,7,7,8,8,9,9,10,10,11,11,12,12,13,13,14,14,16,16,17,17,19,19,20,20,21,21,22,22,23,23,24,24],"right_children":[2,4,6,8,10,12,-1,14,16,18,20,22,24,26,28,-1,30,32,-1,34,36,38,40,42,44,-1,-1,-1,-1,-1,-1,-1,-1,-1,-1,-1,-1,-1,-1,-1,-1,-1,-1,-1,-1],"split_conditions":[2.6883E4,4.82E2,2.8869E4,3.3281785E-2,4.8697897E2,5.7116663E-1,-1.0462128E-1,3.2E1,2E0,1.982411E6,7.287516E2,3E0,2.214738E6,8E0,3.3E1,-1.0461833E-1,3.5732104E2,1E0,-1.0494689E-1,3E0,1.040563E0,3.6E1,1E0,4.7191757E2,4.0182562E2,-8.143627E-2,-1.0468691E-1,8.4119454E-2,-1.0541799E-1,-1.0399634E-1,-8.886746E-2,-1.07745245E-1,1.04946375E-1,-1.0462903E-1,-9.672212E-2,-6.7233555E-2,-1.0315784E-1,-1.338049E-1,-2.1582728E-2,-1.056603E-1,9.358612E-2,1.0456113E-1,-9.278449E-2,-2.4883202E-1,7.993137E-2],"split_indices":[3,11,3,2,11,2,0,7,5,9,11,10,9,8,7,0,11,5,0,5,2,8,5,11,11,0,0,0,0,0,0,0,0,0,0,0,0,0,0,0,0,0,0,0,0],"split_type":[0,0,0,0,0,0,0,0,0,0,0,0,0,0,0,0,0,0,0,0,0,0,0,0,0,0,0,0,0,0,0,0,0,0,0,0,0,0,0,0,0,0,0,0,0],"sum_hessian":[1.5839495E6,8.788834E5,7.0506606E5,6.884109E5,1.9047248E5,6.9564275E5,9.423321E3,1.4829895E4,6.73581E5,9.663307E4,9.383942E4,6.9618634E2,6.9494656E5,1.115995E4,3.6699446E3,5.7038544E5,1.03195555E5,9.522325E4,1.4098203E3,9.200006E4,1.839364E3,1.8354271E2,5.126436E2,6.948864E5,6.016049E1,2.5137935E3,8.646157E3,8.948793E2,2.7750652E3,9.408377E4,9.111777E3,2.0490433E1,9.520276E4,9.128229E4,7.1776825E2,2.4873686E2,1.5906271E3,3.013977E1,1.5340294E2,5.0474835E2,7.895262E0,6.9488375E5,2.662698E0,8.980392E0,5.1180096E1],"tree_param":{"num_deleted":"0","num_feature":"12","num_nodes":"45","size_leaf_vector":"1"}},{"base_weights":[-2.148041E-5,-8.103208E-1,1.0112367E0,-3.326721E-1,-1.0138013E0,1.039021E0,-1.0416011E-1,7.9399776E-1,-1.0381372E0,-1.0413845E-1,-9.109387E-1,-8.7037766E-1,1.040914E0,-8.5333514E-1,1.0425858E0,-5.670788E-1,-1.0426013E0,-4.931892E-1,-1.0155063E0,-3.8589898E-1,-1.0502513E-1,1.0409868E0,2.4917221E-1,-9.6943E-2,-5.1892977E-2,1.04573704E-1,-1.03619754E-1,-1.04191005E-1,1.2220579E-1,-1.04204826E-1,-1.133454E-1,6.250992E-2,-9.853815E-2,-7.974797E-2,-1.0280615E-1,-1.16288744E-1,-2.419523E-2,9.93992E-2,1.0410865E-1,-1.7982231E-1,6.255169E-2],"categories":[],"categories_nodes":[],"categories_segments":[],"categories_sizes":[],"default_left":[0,0,0,0,0,0,0,0,0,0,0,0,0,0,0,0,0,0,0,0,0,0,0,0,0,0,0,0,0,0,0,0,0,0,0,0,0,0,0,0,0],"id":25,"left_children":[1,3,5,7,9,11,-1,13,15,-1,17,19,21,23,25,27,29,31,33,35,-1,37,39,-1,-1,-1,-1,-1,-1,-1,-1,-1,-1,-1,-1,-1,-1,-1,-1,-1,-1],"loss_changes":[1.1794505E6,7.766425E4,3.6521062E4,1.8974122E5,1.5889375E3,2.28425E3,0E0,3.764266E4,3.0809375E2,0E0,5.1758594E3,5.4166992E1,3.6125E1,4.6741992E2,5.242656E2,1.1739473E3,6.140625E0,1.3059276E4,2.5860938E2,1.8858818E1,0E0,1.9375E0,4.677761E1,0E0,0E0,0E0,0E0,0E0,0E0,0E0,0E0,0E0,0E0,0E0,0E0,0E0,0E0,0E0,0E0,0E0,0E0],"parents":[2147483647,0,0,1,1,2,2,3,3,4,4,5,5,7,7,8,8,10,10,11,11,12,12,13,13,14,14,15,15,16,16,17,17,18,18,19,19,21,21,22,22],"right_children":[2,4,6,8,10,12,-1,14,16,-1,18,20,22,24,26,28,30,32,34,36,-1,38,40,-1,-1,-1,-1,-1,-1,-1,-1,-1,-1,-1,-1,-1,-1,-1,-1,-1,-1],"split_conditions":[2.6883E4,1.1548566E0,2.8869E4,1.982411E6,1E0,2.8728184E-1,-1.0416011E-1,1E0,5.057493E6,-1.0413845E-1,5.086699E0,3E0,2.214738E6,3.2E1,4E0,4.998155E6,3.2E1,1.879166E6,8.589332E0,3.6E1,-1.0502513E-1,2.8E1,2E0,-9.6943E-2,-5.1892977E-2,1.04573704E-1,-1.03619754E-1,-1.04191005E-1,1.2220579E-1,-1.04204826E-1,-1.133454E-1,6.250992E-2,-9.853815E-2,-7.974797E-2,-1.0280615E-1,-1.16288744E-1,-2.419523E-2,9.93992E-2,1.0410865E-1,-1.7982231E-1,6.255169E-2],"split_indices":[3,2,3,9,5,2,0,5,9,0,2,10,9,7,5,9,7,9,2,8,0,8,5,0,0,0,0,0,0,0,0,0,0,0,0,0,0,0,0,0,0],"split_type":[0,0,0,0,0,0,0,0,0,0,0,0,0,0,0,0,0,0,0,0,0,0,0,0,0,0,0,0,0,0,0,0,0,0,0,0,0,0,0,0,0],"sum_hessian":[1.4393674E6,7.990811E5,6.4028625E5,2.3871836E5,5.6036275E5,6.3173644E5,8.549834E3,9.191865E4,1.467997E5,4.4186562E5,1.1849714E5,6.25225E2,6.311112E5,1.2051809E4,7.986684E4,1.3793667E3,1.4542034E5,2.3724205E4,9.477294E4,1.7013144E2,4.5509354E2,6.3105294E5,5.8248833E1,8.944623E3,3.1071855E3,7.974645E4,1.2038969E2,1.0903966E3,2.8897018E2,1.4455269E5,8.6765497E2,7.2504683E3,1.6473736E4,5.163925E3,8.9609016E4,2.548596E1,1.4464548E2,1.3567996E3,6.296961E5,8.457904E0,4.9790928E1],"tree_param":{"num_deleted":"0","num_feature":"12","num_nodes":"41","size_leaf_vector":"1"}},{"base_weights":[-1.6644446E-5,-8.0578864E-1,1.0071461E0,-1.029988E0,3.6089285E-3,1.0348758E0,-1.0374563E-1,-8.58346E-1,-1.0338662E0,1.038318E0,-1.0353044E0,-7.975573E-1,1.0367762E0,-7.0284206E-1,-1.03767574E-1,-1.0343195E0,-8.0397344E-1,1.0409671E0,-1.0448133E-1,-1.0370117E0,-9.4874585E-1,-2.506475E-1,-1.0210727E0,1.0368072E0,-1.12129904E-1,-6.416032E-2,-1.12417914E-1,-1.037507E-1,-1.0166991E-1,-1.039513E-1,-7.216441E-3,-1.0446196E-1,1.0412134E-1,-1.0374897E-1,-9.745348E-2,-9.769028E-2,2.624313E-2,-1.2823269E-1,-7.1914042E-3,-1.0450325E-1,8.620494E-2,1.036877E-1,2.556024E-2],"categories":[],"categories_nodes":[],"categories_segments":[],"categories_sizes":[],"default_left":[0,0,0,0,0,0,0,0,0,0,0,0,0,0,0,0,0,0,0,0,0,0,0,0,0,0,0,0,0,0,0,0,0,0,0,0,0,0,0,0,0,0,0],"id":26,"left_children":[1,3,5,7,9,11,-1,13,15,17,19,21,23,25,-1,27,29,31,-1,33,35,37,39,41,-1,-1,-1,-1,-1,-1,-1,-1,-1,-1,-1,-1,-1,-1,-1,-1,-1,-1,-1],"loss_changes":[1.061846E6,1.3190578E5,3.2972125E4,3.78E2,1.694937E5,1.9988125E3,0E0,3.5015527E2,5.7125E1,4.3701562E2,1.0640625E1,7.247644E1,3.95625E1,1.7323975E2,0E0,3.0125E1,1.8953546E2,4.1609375E1,0E0,1.296875E0,5.2558838E1,3.1981825E1,1.9942993E1,3.10625E1,0E0,0E0,0E0,0E0,0E0,0E0,0E0,0E0,0E0,0E0,0E0,0E0,0E0,0E0,0E0,0E0,0E0,0E0,0E0],"parents":[2147483647,0,0,1,1,2,2,3,3,4,4,5,5,7,7,8,8,9,9,10,10,11,11,12,12,13,13,15,15,16,16,17,17,19,19,20,20,21,21,22,22,23,23],"right_children":[2,4,6,8,10,12,-1,14,16,18,20,22,24,26,-1,28,30,32,-1,34,36,38,40,42,-1,-1,-1,-1,-1,-1,-1,-1,-1,-1,-1,-1,-1,-1,-1,-1,-1,-1,-1],"split_conditions":[2.6883E4,4.82E2,2.8869E4,3.3281785E-2,3.4990903E2,4.9631044E-1,-1.0374563E-1,1E0,7.863472E2,1.982411E6,7.287516E2,3E0,3.6738943E2,1E0,-1.03767574E-1,2E0,1.6025814E0,1E0,-1.0448133E-1,3E0,7.863472E2,3.6E1,5.6985E0,2.214738E6,-1.12129904E-1,-6.416032E-2,-1.12417914E-1,-1.037507E-1,-1.0166991E-1,-1.039513E-1,-7.216441E-3,-1.0446196E-1,1.0412134E-1,-1.0374897E-1,-9.745348E-2,-9.769028E-2,2.624313E-2,-1.2823269E-1,-7.1914042E-3,-1.0450325E-1,8.620494E-2,1.036877E-1,2.556024E-2],"split_indices":[3,11,3,2,4,2,0,1,4,9,11,10,4,9,0,5,2,5,0,5,4,8,4,9,0,0,0,0,0,0,0,0,0,0,0,0,0,0,0,0,0,0,0],"split_type":[0,0,0,0,0,0,0,0,0,0,0,0,0,0,0,0,0,0,0,0,0,0,0,0,0,0,0,0,0,0,0,0,0,0,0,0,0,0,0,0,0,0,0],"sum_hessian":[1.3084256E6,7.268865E5,5.815391E5,5.6921594E5,1.5767052E5,5.737581E5,7.7810312E3,1.2581659E4,5.566343E5,7.899509E4,7.8675414E4,5.939827E2,5.731641E5,6.7411016E3,5.840558E3,5.555353E5,1.0990204E3,7.8895266E4,9.9830284E1,7.714276E4,1.5326605E3,1.7294147E2,4.2104123E2,5.7315644E5,7.726041E0,5.8878584E3,8.5324286E2,4.7038956E5,8.514573E4,8.31102E2,2.6791843E2,8.813896E0,7.888645E4,7.654177E4,6.0098444E2,1.4980284E3,3.4632027E1,2.4625341E1,1.4831612E2,4.1619092E2,4.850321E0,5.731049E5,5.153125E1],"tree_param":{"num_deleted":"0","num_feature":"12","num_nodes":"43","size_leaf_vector":"1"}},{"base_weights":[-2.4366076E-4,-8.0187273E-1,1.0035183E0,-1.0259757E0,-2.424051E-1,1.031119E0,-1.0337402E-1,-8.300998E-1,-1.0309778E0,9.951549E-1,-9.86364E-1,-8.378561E-1,1.0330687E0,-9.6712184E-1,-4.6375802E-1,-1.0150901E0,-1.0335877E-1,-1.03702866E-1,1.0258652E0,-9.001307E-1,-1.0283196E0,-8.5637224E-1,3.9460006E-1,1.0330968E0,-1.0601667E-1,-7.420717E-2,-1.0348201E-1,9.0124205E-2,-1.04289845E-1,-1.0242655E-1,-8.461343E-2,1.0316111E-1,-1.0451477E-1,-1.0341852E-1,9.079953E-3,-1.0327657E-1,-8.939898E-2,-1.22183494E-1,-8.384999E-2,-7.542685E-2,8.895164E-2,8.026808E-2,1.033132E-1],"categories":[],"categories_nodes":[],"categories_segments":[],"categories_sizes":[],"default_left":[0,0,0,0,0,0,0,0,0,0,0,0,0,0,0,0,0,0,0,0,0,0,0,0,0,0,0,0,0,0,0,0,0,0,0,0,0,0,0,0,0,0,0],"id":27,"left_children":[1,3,5,7,9,11,-1,13,15,17,19,21,23,25,27,29,-1,-1,31,33,35,37,39,41,-1,-1,-1,-1,-1,-1,-1,-1,-1,-1,-1,-1,-1,-1,-1,-1,-1,-1,-1],"loss_changes":[9.561617E5,8.2833875E4,2.96695E4,4.6128125E2,1.7397095E5,1.8976875E3,0E0,5.894409E2,1.80625E1,4.428578E3,4.2603125E2,1.2730194E1,3.18125E1,1.2952002E2,2.5312793E3,9.9828125E1,0E0,0E0,8.3272656E2,5.132047E3,4.6492188E1,2.4719849E0,5.6303577E0,3.3125E0,0E0,0E0,0E0,0E0,0E0,0E0,0E0,0E0,0E0,0E0,0E0,0E0,0E0,0E0,0E0,0E0,0E0,0E0,0E0],"parents":[2147483647,0,0,1,1,2,2,3,3,4,4,5,5,7,7,8,8,9,9,10,10,11,11,12,12,13,13,14,14,15,15,18,18,19,19,20,20,21,21,22,22,23,23],"right_children":[2,4,6,8,10,12,-1,14,16,18,20,22,24,26,28,30,-1,-1,32,34,36,38,40,42,-1,-1,-1,-1,-1,-1,-1,-1,-1,-1,-1,-1,-1,-1,-1,-1,-1,-1,-1],"split_conditions":[2.6883E4,3.2056824E2,2.8869E4,3.3281785E-2,3.2554565E2,4.9631044E-1,-1.0337402E-1,3.2E1,1.040563E0,1E0,3.5853555E2,2.0506097E2,3.6738943E2,8E0,3.3E1,7.219457E-1,-1.0335877E-1,-1.03702866E-1,2E0,1E0,7.863472E2,3.6E1,2.4E1,1.1548566E0,-1.0601667E-1,-7.420717E-2,-1.0348201E-1,9.0124205E-2,-1.04289845E-1,-1.0242655E-1,-8.461343E-2,1.0316111E-1,-1.0451477E-1,-1.0341852E-1,9.079953E-3,-1.0327657E-1,-8.939898E-2,-1.22183494E-1,-8.384999E-2,-7.542685E-2,8.895164E-2,8.026808E-2,1.033132E-1],"split_indices":[3,4,3,2,4,2,0,7,2,5,4,4,4,8,7,2,0,0,5,5,4,8,8,2,0,0,0,0,0,0,0,0,0,0,0,0,0,0,0,0,0,0,0],"split_type":[0,0,0,0,0,0,0,0,0,0,0,0,0,0,0,0,0,0,0,0,0,0,0,0,0,0,0,0,0,0,0,0,0,0,0,0,0,0,0,0,0,0,0],"sum_hessian":[1.1883008E6,6.60672E5,5.2762875E5,4.7171772E5,1.889543E5,5.205765E5,7.0522344E3,1.1750494E4,4.5996725E5,7.094254E4,1.1801176E5,5.4203796E2,5.2003447E5,8.550666E3,3.1998276E3,6.4954242E4,3.95013E5,1.0556344E3,6.988691E4,3.863199E4,7.937977E4,5.343157E2,7.7222624E0,5.2002797E5,6.489434E0,1.9801134E3,6.570553E3,9.530316E2,2.246796E3,6.1603703E4,3.350537E3,6.969405E4,1.9285745E2,3.4028516E4,4.60347E3,7.683011E4,2.549663E3,2.1770828E1,5.1254486E2,2.1672676E0,5.554995E0,8.272877E1,5.1994525E5],"tree_param":{"num_deleted":"0","num_feature":"12","num_nodes":"43","size_leaf_vector":"1"}},{"base_weights":[1.4733958E-4,-7.9521525E-1,9.9898666E-1,-1.0173872E0,5.9147105E-3,8.2390785E-1,1.0297891E0,-1.0251157E0,-9.7494185E-1,1.03118E0,-1.0279315E0,-1.0019435E0,9.5774204E-1,1.0300158E0,-1.2897399E-1,-9.5451224E-1,-1.03070475E-1,-1.0111842E0,-3.19601E-1,1.0339112E0,-1.0356303E-1,-1.0300217E0,-9.228778E-1,-1.0446181E0,1.2963365E-1,1.0289345E-1,-9.6412843E-1,1.030032E0,-8.591875E-2,-1.1138054E-1,7.311291E-1,-1.0091835E-1,-6.324582E-2,-1.0222109E-1,-3.6647707E-2,1.5457438E-1,-1.0286675E-1,1.0342131E-1,-9.569775E-2,-1.0306038E-1,-9.547036E-2,-9.566132E-2,3.892387E-2,-1.0350517E-1,-3.5373724E-1,1.03918865E-1,-4.96871E-2,-9.344244E-2,-1.0333645E-1,4.30514E-2,1.0300677E-1,1.01369336E-1,-1.495121E-1],"categories":[],"categories_nodes":[],"categories_segments":[],"categories_sizes":[],"default_left":[0,0,0,0,0,0,0,0,0,0,0,0,0,0,0,0,0,0,0,0,0,0,0,0,0,0,0,0,0,0,0,0,0,0,0,0,0,0,0,0,0,0,0,0,0,0,0,0,0,0,0,0,0],"id":28,"left_children":[1,3,5,7,9,11,13,15,17,19,21,23,25,27,29,31,-1,33,35,37,-1,39,41,43,45,-1,47,49,-1,-1,51,-1,-1,-1,-1,-1,-1,-1,-1,-1,-1,-1,-1,-1,-1,-1,-1,-1,-1,-1,-1,-1,-1],"loss_changes":[8.5775756E5,1.0698434E5,2.5803125E3,1.5340625E2,1.3832867E5,1.7500594E4,1.070625E2,1.5609375E2,1.7217578E3,3.7095312E2,1.3328125E1,2.3633252E2,9.130266E3,1.33125E1,6.900703E1,5.137246E2,0E0,4.8804688E2,5.029129E3,4.0304688E1,0E0,1.8046875E0,5.6910156E1,1.08743164E2,1.02317024E2,0E0,3.9370117E0,8.25E0,0E0,0E0,2.892856E1,0E0,0E0,0E0,0E0,0E0,0E0,0E0,0E0,0E0,0E0,0E0,0E0,0E0,0E0,0E0,0E0,0E0,0E0,0E0,0E0,0E0,0E0],"parents":[2147483647,0,0,1,1,2,2,3,3,4,4,5,5,6,6,7,7,8,8,9,9,10,10,11,11,12,12,13,13,14,14,15,15,17,17,18,18,19,19,21,21,22,22,23,23,24,24,26,26,27,27,30,30],"right_children":[2,4,6,8,10,12,14,16,18,20,22,24,26,28,30,32,-1,34,36,38,-1,40,42,44,46,-1,48,50,-1,-1,52,-1,-1,-1,-1,-1,-1,-1,-1,-1,-1,-1,-1,-1,-1,-1,-1,-1,-1,-1,-1,-1,-1],"split_conditions":[3.2E1,4.82E2,2.5395424E2,2E0,3.4990903E2,4E1,2.306062E6,5.6985E0,4.181447E2,1.982411E6,7.287516E2,1.3827519E2,2E0,4.7191757E2,4.061217E2,3.2E1,-1.03070475E-1,3.4990903E2,3.042184E2,4.8697897E2,-1.0356303E-1,3E0,7.863472E2,2E0,7.7567177E0,1.0289345E-1,3E0,2E0,-8.591875E-2,-1.1138054E-1,4.2049908E2,-1.0091835E-1,-6.324582E-2,-1.0222109E-1,-3.6647707E-2,1.5457438E-1,-1.0286675E-1,1.0342131E-1,-9.569775E-2,-1.0306038E-1,-9.547036E-2,-9.566132E-2,3.892387E-2,-1.0350517E-1,-3.5373724E-1,1.03918865E-1,-4.96871E-2,-9.344244E-2,-1.0333645E-1,4.30514E-2,1.0300677E-1,1.01369336E-1,-1.495121E-1],"split_indices":[8,11,11,5,4,8,9,4,11,9,11,4,10,11,11,7,0,4,4,11,0,5,4,5,11,0,10,5,0,0,11,0,0,0,0,0,0,0,0,0,0,0,0,0,0,0,0,0,0,0,0,0,0],"split_type":[0,0,0,0,0,0,0,0,0,0,0,0,0,0,0,0,0,0,0,0,0,0,0,0,0,0,0,0,0,0,0,0,0,0,0,0,0,0,0,0,0,0,0,0,0,0,0,0,0,0,0,0,0],"sum_hessian":[1.0796996E6,6.010732E5,4.7862644E5,4.705723E5,1.3050087E5,7.161274E4,4.070137E5,3.9806788E5,7.250444E4,6.552235E4,6.497852E4,4.890258E3,6.6722484E4,4.069342E5,7.950547E1,2.92122E4,3.6885566E5,6.8704336E4,3.8001008E3,6.543638E4,8.597449E1,6.3702258E4,1.2762614E3,4.7126104E3,1.776477E2,6.43396E4,2.3828848E3,4.0693116E5,3.0217562E0,3.6927708E1,4.2577766E1,2.4971033E4,4.2411655E3,6.754845E4,1.1558833E3,1.0463314E3,2.7537693E3,6.542694E4,9.43636E0,6.3201082E4,5.0117624E2,1.2445344E3,3.1726858E1,4.6960034E3,1.6606596E1,7.218758E1,1.0546012E2,1.6776345E3,7.0525037E2,2.4913525E1,4.0690625E5,3.826561E1,4.3121543E0],"tree_param":{"num_deleted":"0","num_feature":"12","num_nodes":"53","size_leaf_vector":"1"}}]},"name":"gbtree"},"learner_model_param":{"base_score":"5E-1","boost_from_average":"1","num_class":"0","num_feature":"12","num_target":"1"},"objective":{"name":"binary:logistic","reg_loss_param":{"scale_pos_weight":"9.41594791"}}},"version":[3,0,5]}